-0.004393962 0.33795032 0.21757945 0.0054470953 -0.14112869 0.104915574 0.102961175 0.47861642 0.3022471 -0.16040124 0.07380313 0.41952634 0.38772252 0.13832569 0.3188354 -0.035355635 0.20476991 0.3855409 0.3960955 0.45355827 -0.21629468 0.22506623 0.1768758 0.20892186 0.23060703 0.27472398
0.09546976 0.038082693 -0.24476737 -0.2532075 -0.21905063 0.048595164 0.20653069 -0.025668377 0.15978144 0.16501614 0.027899804 0.17198199 0.43356374 0.024939619 0.14608248 0.3547712 0.57593596 0.17999917 0.37484038 0.2481107 0.06880249 0.31862193 0.40610301 0.20756374 -0.022196474 0.38857058
0.028230492 0.18091778 0.30737907 0.2622949 0.23215252 0.44334158 0.4085543 0.16328588 0.14170481 -0.06053479 0.14178573 -0.07617407 -0.02321317 -0.028017476 -0.09841908 -0.05307641 -0.245622 0.009829326 -0.32899466 -0.076839596 -0.29485896 -0.33994907 -0.1521226 0.11252982 -0.0414502 0.24906895
0.06458553 -0.30033833 -0.16248406 0.12893769 0.3885441 -0.22619283 -0.29079333 -0.08204836 0.13454203 0.33411077 -0.32922888 -0.17263474 -0.13724098 0.41418186 0.39407772 -0.33021978 -0.074834384 -0.009435791 0.1398 0.2283559 -0.10764354 0.022880731 0.012036184 0.3104175 0.2865782 -0.052700512
-0.027048334 -0.1626657 0.12655795 -0.09488089 -0.07989341 0.16096981 -0.2017958 -0.011415508 -0.18337063 -0.19980869 -0.09671916 -0.15176842 -0.10495234 0.07393247 -0.1305235 0.074411094 0.22418654 0.16100962 0.20246331 0.04905442 0.056988377 0.038288318 0.04217759 -0.06306593 -0.015458404 0.117161445
-0.099797376 0.33524674 0.48269948 0.48807275 0.35275364 -0.07101139 0.0040970687 0.01235931 -0.00042961765 0.2766302 0.10921783 -0.2967195 -0.27708957 0.04162938 0.1407644 -0.094019674 -0.253999 -0.2839326 -0.08022427 -0.0780209 0.019413674 -0.19887339 -0.23206538 -0.16425471 -0.12010258 0.007933475
0.036055524 0.041562382 0.04546365 0.057101447 -0.14402243 -0.09337674 0.078931 0.14090604 0.1786319 -0.052483045 0.022299493 0.045829527 0.06744413 0.1764392 0.12913221 -0.034700606 -0.13502486 -0.051728208 0.13899584 0.14623868 -0.023973309 -0.107603036 -0.035310555 -0.061891053 0.01651903 -0.028592719 -0.046721645 0.08976369 0.0079889735 0.02159625 -0.009089406 -0.07109209 0.024404742 0.09095584 -0.03170182 -0.07267393 -0.059678983 0.049945615 0.11979976 0.14851308 -0.095588274 -0.12488761 -0.029204141 -0.03735658 0.0048750057 0.092631206 -0.053466555 -0.12681238 -0.018476935 -0.0654775 0.03471445 0.0536211 -0.03574423 -0.028017383 -0.010255924 0.066450894 -0.083503745 0.014169989 0.01962605 0.007066638 0.001246278 -0.033834066 0.06264703 -0.07625576 -0.08228091 -0.009220147 0.02749532 -0.10519738 -0.047934458 -0.06258668 -0.06824309 -0.029114481 -0.09272661 -0.054988664 -0.07101499 -0.044374827 0.01867016 0.10239636 -0.01464086 0.033624176 -0.013667678 -0.034218986 0.00693438 0.05533123 -0.09312725 0.031814706 0.061244924 0.025708633 0.012740521 0.014166377 -0.08531918 -0.057516657 0.11644414 0.037208106 -0.104730815 0.032485902 -0.121041484 0.0071133315 0.015310363 -0.06164586 -0.025458643 -0.03664044 -0.057463717 0.023354353 0.021519268 0.0040192585 0.025077531 0.05293089 -0.04141972 -0.021673687 -0.07240943 -0.08123003 0.029901933 0.017697006 -0.047085788 0.079808496 -0.024586216 -0.06171933 -0.05434775 -0.024914976 -0.05867296 0.042375676 0.057911076 0.034183875 -0.06500159 0.010970942 0.05154935 -0.07423566 0.02246763 -0.051641606 0.083457515 -0.034162186 0.04358698 -0.04221109 0.020280585 -0.025993088 0.004691742 0.09613677 -0.052159037 0.0032945815 -0.093273446 -0.005575818 0.053867437 0.108759925 -0.068054944 0.015103214 -0.11900222 0.061145224 0.057877205 0.07108841 -0.0054652523
-0.04820851 0.02504073 0.14431573 -0.020457465 -0.04396997 -0.12426246 0.019500118 0.17029312 0.036043916 -0.09920599 -0.093835495 0.03149634 0.12534767 -0.06794734 -0.05006251 -0.00612449 0.04473702 0.0619598 -0.078201905 -0.086317495 -0.060699202 0.056348566 0.056182846 -0.10516919 -0.040469103 -0.15803286 -0.1647527 0.08024778 0.09943128 -0.026729845 -0.113807485 0.0070580053 0.09711521 0.06706481 -0.0579497 -0.082189284 0.035844 0.072883256 0.057557393 -0.13935947 -0.01893774 -0.0009689704 0.011313945 -0.016839404 -0.13563122 0.052540567 -0.032219324 -0.07664032 -0.07218915 -0.09288008 0.032349758 -0.028015079 -0.00082069135 0.0195764 0.023920791 -0.09722527 -0.04165539 -0.023092777 0.04710973 0.07192291 0.017653652 -0.11589724 0.027083095 0.08563518 0.007467862 -0.07452313 0.0025029625 0.10994022 0.019159436 -0.09496091 0.044697486 -0.021593811 0.102128714 -0.023149744 -0.1509229 -0.07395314 0.12256733 0.17045645 0.053609774 -0.037961178 -0.028536228 0.21977077 0.14028966 -0.10976244 -0.08006309 -0.026159387 0.21156201 0.03656095 -0.07968576 0.017030913 0.047702577 0.10073623 0.08082971 0.00746246 0.047001075 0.11073368 0.08410708 0.046596628 -0.061188456 0.08783242 -0.01749966 -0.056927785 -0.02682808 -0.08720668 -0.027919307 0.038460154 -0.07113771 -0.047698848 -0.058020595 0.052039105 -0.044159837 -0.05679248 -0.04207278 -0.089637086 0.07864489 0.052591786 -0.09112607 -0.04033261 0.07906291 -0.044523288 0.01780945 -0.018410465 -0.047402013 -0.016246872 0.07500233 0.08108584 0.053709306 -0.060044505 0.0051143384 0.041248202 -0.017698092 -0.105773196 -0.083076954 -0.100492366 0.08798583 -0.07016247 -0.10199384 0.031593803 0.031318683 0.04991982 -0.03972723 -0.016428635 -0.0782691 0.026651211 0.017536914 -0.079590075 0.020445524 -0.010102283 -0.12543908 0.02865752 -0.0533873
0.084460564 -0.087627165 -0.12340541 -0.070975214 0.009716789 0.14392217 0.16414928 0.04458877 0.037247583 0.0007220939 -0.0054807155 0.1604991 0.20174563 0.17222561 0.16202228 -0.090591274 -0.095335014 -0.12309112 -0.09525469 -0.07107736 -0.0379808 -0.13758165 -0.18813795 -0.054311547 0.004627836 0.047450427 -0.016738826 -0.05872535 -0.09617287 -0.106113 0.10610568 0.1246135 0.044630773 0.12674457 0.16968939 0.02109782 0.06783023 0.16067444 0.14380302 0.10207931 -0.0630514 -0.09677092 -0.051209725 -0.10831718 -0.06597475 -0.081302516 -0.07398654 -0.08356562 -0.025709819 0.104980245 0.026862705 -0.010310835 0.0473726 0.016771033 -0.028041672 0.044762727 0.06453343 -0.12415217 -0.05330242 -0.09204607 0.09157164 0.042744063 -0.00018626038 0.13237263 0.2350137 0.05827749 0.016672958 0.20267776 0.19668058 0.09824273 0.03417254 0.024835974 0.026747545 -0.058729373 0.029754132 0.020406714 -0.013913337 -0.10660295 -0.12088415 -0.029224586 -0.063829005 -0.12085254 -0.14824596 -0.14757548 0.018841233 -0.04182321 -0.05306139 -0.06325679 -0.112607874 -0.10680202 -0.12767614 -0.11668029 -0.007320356 0.03135071 -0.052836124 -0.0099769365 -0.12883848 -0.0349117 -0.014834874 0.06998548 0.07841678 -0.035176605 0.049453676 -0.024012513 -0.0037978895 0.025860999 0.0699979 0.015560754 0.13470389 0.008577965 -0.037122082 0.0075830864 0.0023338539 -0.026209958 -0.017484216 -0.028997485 -0.011277772 0.0715514 0.005272353 0.011540004 0.009298267 0.010089029 0.03683774 0.038261868 -0.029801818 -0.10160932 0.025057953 -0.032691155 -0.003635947 0.032952324 -0.0060114595 0.06347181 -0.112554245 0.04229487 0.011790415 0.114193216 0.119475834 0.054814436 0.047062613 0.10094292 -0.014005271 0.18895818 0.24367934 0.17357421 0.013036765 0.012940303 0.06877268 -0.046108 -0.03646525 -0.013141502 -0.018446788
-0.09056225 -0.0026078408 -0.07492315 0.0038100109 -0.07611697 0.036955986 0.0020579095 0.056796797 -0.108922504 -0.023374004 -0.025637204 -0.057352383 0.070995584 -0.027407227 -0.068931736 -0.012884142 0.008406429 0.06669507 0.016828679 0.10596967 0.12475094 0.015040728 0.029326674 0.022160653 -0.009445465 0.04529644 0.0042139958 0.045655515 -0.0487926 -0.10595947 -0.0103106825 0.059354 0.050354954 -0.08278398 -0.059776254 -0.04708661 -0.03437431 0.07149392 0.052365396 0.059764035 0.04506893 0.10946693 -0.009951166 -0.012470306 0.109719686 0.090948895 -0.013471866 0.013957942 0.090719745 0.007856832 0.064412326 0.038517103 -0.06980089 -0.07523607 -0.021392917 -0.06988702 -0.036479086 -0.08908004 0.0041128653 -0.033134706 0.0017924393 -0.05258162 -0.060348067 -0.0653148 -0.0055663325 0.0613293 -0.016280094 0.0689057 -0.032642815 0.012972196 -0.02347021 0.07995465 -0.032886665 -0.048668217 0.10078158 -0.026343323 0.006515755 -0.080675 -0.05941367 -0.045409363 -0.04929322 -0.06671052 -0.07920141 -0.029088879 0.053690065 0.05614897 0.019024365 -0.047539707 0.036747966 -0.024738993 0.020419378 0.039160594 -0.039246432 -0.034415636 0.00690973 -0.011049662 -0.042485137 0.06390492 0.011595503 -0.04977186 0.0009225293 0.014183809 -0.01872577 -0.016997758 -0.072043754 0.051550936 -0.007775822 0.069139354 -0.01993332 -0.04742097 -0.034999747 -0.0505575 -0.05302909 -0.03330752 -0.015791615 0.011187524 0.014921608 0.041133028 -0.02471725 -0.04509428 0.053955734 0.06832587 -0.06404116 0.02689908 0.07863821 -0.007772951 -0.056547217 0.06713249 0.026004776 0.060352813 0.019661086 0.017280553 -0.016951295 -0.034368508 0.03755239 -0.032461192 -0.0037231557 -0.05105143 0.010786551 -0.07719447 -0.09885598 -0.033203464 -0.06465575 -0.046622936 0.080939524 -0.034329295 -0.044170953 -0.005481089 -0.016291672 -0.022817472 -0.03212878
0.011417379 -0.08657086 -0.09477532 0.026896028 -0.026571117 0.025521493 -0.016121712 -0.15619096 -0.17772885 -0.010110419 -0.014756172 -0.013193397 -0.07431076 -0.15449321 -0.066225655 0.060930695 0.14984165 -9.5469106e-05 0.12963642 0.015374213 0.0778493 0.12756993 0.09066749 0.06387192 0.15180984 -0.11560114 -0.10275856 -0.09661204 -0.07241627 0.024500716 -0.035853237 -0.07821315 -0.04369629 -0.0951957 -0.18214166 0.019601962 0.02082453 0.004854542 0.01402068 -0.09942135 0.07036257 0.07847679 0.031419706 0.035572 0.11068652 0.02564525 0.12635142 0.097345196 0.0034965514 0.06950552 -0.013680691 0.009538313 -0.027739808 0.0033026242 0.070151106 -0.07321039 0.023013854 0.0199794 0.003101683 0.021440309 0.07584495 0.017128317 0.0015222536 -0.05381854 -0.022584166 0.05744195 0.019299777 0.052599676 -0.021879703 -0.12713441 0.017961476 -0.007744296 0.040873855 0.107084796 -0.012733903 -0.08008962 0.024008835 0.0037465857 0.026984803 0.0371807 -0.06380039 -0.12254916 -0.03786042 -0.02288265 -0.079575695 -0.11286666 -0.08705119 -0.08241491 -0.06716815 -0.088420466 -0.08280027 -0.008510383 0.0223598 0.021970928 -0.079041936 0.036460757 0.0036286716 -0.047189347 -0.06435661 -0.04976226 0.03505218 0.021994805 0.070831865 -0.057599373 -0.037837178 -0.05087714 -0.04269383 0.077648476 0.08031058 -0.024611503 0.06822097 0.038718645 -0.034817 0.09916427 0.031372532 -0.029450439 0.087452054 -0.0035406263 -0.005644442 0.11425258 0.02932436 -0.052675113 0.091812804 0.0071447045 -0.04615793 -0.022217546 0.062075317 -0.016301483 0.025289241 0.042656887 -0.0015598711 0.0042378954 -0.0044363267 -0.019471975 0.077779986 0.064397335 0.084010296 0.0658692 0.072578214 0.087619066 -0.055598013 0.009286125 0.070393346 -0.03127291 -0.02790748 0.114852004 0.101813495 0.13367802 0.1392435 0.105473176 0.0160025
-0.019599393 0.074947685 0.0524204 0.073729135 0.053380273 0.12852922 0.09956235 0.010042149 0.09097056 0.11756214 -0.058936432 -0.1454132 -0.12262138 -0.02681113 0.06081946 -0.13492523 -0.027880196 -0.05287564 -0.1273312 -0.045354843 -0.03852455 -0.021716934 0.05021762 -0.04058614 -0.024404148 0.047639314 0.03642588 0.091234475 0.047414273 0.15388656 0.0037049123 0.124961175 0.029095447 0.06797241 0.06725503 -0.093760155 -0.06379754 -0.1457506 0.008988978 -0.08817914 -0.029134858 -0.090984754 0.017455049 -0.061801393 -0.059027743 0.051823586 0.13927256 0.1268384 -0.012158132 0.05513389 -0.07904965 0.028954145 -0.022885071 -0.059191573 0.031211043 -0.0665299 0.083931774 0.10315716 0.056330714 0.13031365 0.12316233 0.15275481 0.14474866 0.20290293 0.09515509 0.020054547 -0.03432274 0.020043407 0.0048152553 -0.02092645 -0.057549983 -0.052194726 0.03022363 -0.03192389 0.10664185 0.012230197 -0.09614356 -0.101552956 -0.034053106 -0.07193182 0.0066347923 -0.07324759 -0.0037373733 -0.14106889 0.035274155 -0.0056370697 -0.009624272 -0.1485936 0.00125986 -0.008956975 -0.0073381616 -0.0005722194 -0.0049348967 0.013574197 -0.018953314 0.024011679 0.016687013 0.05868073 0.003713541 -0.04907294 0.024268439 -0.03667016 0.05439221 -0.023314975 0.033801526 0.010613116 -0.002862651 0.002986795 0.012352081 -0.03907101 -0.07513866 0.05841275 -0.06029138 0.062329166 0.049757686 0.09105431 0.00025077214 -0.03653166 -0.06558393 -0.01160059 0.012117497 -0.008403078 -0.029745862 -0.03763244 -0.0026416809 -0.0071232924 0.035680782 -0.012188249 -0.008779616 0.08013828 0.046399605 0.044373643 0.094990686 0.06801123 0.077259816 0.13591774 0.15448518 0.23379967 0.06866466 0.013602004 -0.024549281 0.063791275 0.001255612 0.0138474 -0.1184013 0.019462556 -0.036932454 -0.07363327 0.044655565 0.02650705 0.04848364
0.0093680415 -0.01234972 -0.08064605 -0.09699477 0.058285285 0.103189215 0.07274652 -0.07835255 -0.04961124 -0.04772622 0.0014615061 -0.009378931 -0.008791322 -0.069753036 -0.09473733 0.06972707 -0.05192919 0.017817149 0.047884367 -0.0074834274 0.033509873 0.038420353 0.1410474 0.09689896 -0.013847823 0.09569702 0.039874263 -0.03628435 -0.006857852 -0.05626276 0.01097174 -0.024462916 -0.07137224 -0.09188893 -0.059786987 0.08939567 0.0071027074 -0.016397199 -0.09253913 0.021257414 -0.004536255 0.01230514 -0.030096943 0.023556529 -0.047003876 -0.016250964 -0.041428056 -0.016503485 0.13382465 0.022508949 -0.05124991 -0.006671017 0.077228434 -0.08077238 -0.010802681 0.09359763 0.08834423 -0.010000265 -0.09821643 0.02385983 0.06814885 0.06878803 -0.08473646 -0.112199046 0.03027183 0.042405516 -0.01147289 -0.00043570186 -0.10849458 -0.054001745 0.0110826185 0.051662736 0.008269624 -0.00901063 -0.10600474 0.13552977 -0.025577804 -0.048235077 0.0531584 0.052121833 -0.029830005 0.014118893 -0.0054316213 0.0038751436 -0.01676652 0.063327186 -0.03599689 -0.08823848 -0.013106649 -0.046671398 -0.0004878032 0.044917103 0.046045505 -0.03466007 -0.011033085 0.06815332 -0.061662186 0.016583908 0.04440795 -0.04172511 -0.028551018 -0.086492576 0.040147115 0.0030442334 -0.066511646 0.03330328 0.046568718 0.07194733 0.0059730024 -0.026199492 -0.026735105 -0.020213932 0.025099754 0.017053142 0.0418538 -0.059016403 0.05129482 0.047129076 -0.047521926 0.03481519 -0.05041282 -0.07326764 0.018046072 -0.017307129 0.03911872 -0.0034599982 0.058357164 0.005558359 -0.03480816 -0.0013859032 0.05194254 -0.0127447015 0.036316317 -0.071539454 -0.03599012 -0.03527011 -0.061725315 -0.05002603 -0.047788706 -0.027752852 -0.013159186 -0.049789496 -0.018339274 -0.0062037054 -0.030577932 -0.004490782 0.05676904 -0.038099933 0.0211334 -0.055323306 -0.027002484
0.03700796 0.015380201 -0.059144355 -0.04143627 -0.0134391105 -0.07284384 0.05525923 0.11571865 0.12293255 0.081670664 -0.026931558 -0.069486246 -0.056323603 -0.041945573 -0.008793868 -0.049704954 -0.09024501 -0.056040138 -0.06805561 -0.02218451 -0.07283965 -0.05031784 -0.060901083 -0.07167861 -0.05615531 0.0694078 0.004428673 0.11339626 -0.021388069 0.08784778 -0.032127522 0.034622245 0.10969639 -0.0066362703 0.015912315 0.037988376 -0.0671462 -0.042163786 -0.01744519 -0.07985472 0.038606748 -0.019721065 -0.044633582 -0.072523504 -0.030892806 0.07423069 0.06772254 -0.07126807 -0.06672873 0.036556207 0.037890844 0.07399798 -0.020118074 -0.060119215 -0.04892489 -0.010275175 0.0597198 0.08739613 0.10702719 0.047420956 -0.09332377 0.0017094078 0.101824015 0.04643103 -0.014874618 -0.057104334 0.0022330876 0.03720499 -0.00023652505 -0.008788909 0.04144397 -0.049468357 -0.09891196 -0.11269323 -0.092806906 0.034433763 -0.02419397 0.032377418 0.064092234 0.057616953 0.101718105 0.057953373 0.05024716 -0.035558186 -0.0026644855 0.07660105 0.081136845 0.007988795 0.05098087 -0.04092708 0.04741675 -0.089249685 -0.075772084 -0.04568304 -0.029523268 -0.052151594 -0.004421706 -0.04508744 -0.0022520605 0.05887222 0.066130474 0.055974044 -0.044221714 0.08218918 -0.01830765 -0.023383655 -0.050378174 0.00023018598 0.0020740659 0.080977395 -0.047372747 0.079941325 0.010975954 -0.045080658 -0.035602454 -0.018349396 0.04925159 -0.040749066 -0.010930529 -0.015128619 0.029443046 -0.0688437 0.0664076 -0.044457283 -0.061059862 0.068017416 0.024658978 -0.028775193 -0.043737322 0.019047549 -0.015088051 0.035864547 -0.020122357 0.091554776 0.02029495 -0.017147988 0.049246736 0.0859855 0.052574042 0.028476762 0.030104937 -0.058938447 0.07296535 0.041617073 0.0683926 0.011401965 -0.012038009 0.01778366 -0.0059965122 -0.01956323 0.03180988
-0.12917878 -0.025224166 0.056868743 0.11070195 0.0909246 0.013379063 -0.09340735 0.074138895 0.0109466445 0.049480762 0.06725787 0.0029913022 -0.011915045 0.1003949 0.05036809 -0.03950943 0.046256762 0.08456067 0.054821324 -0.068258286 -0.03567761 0.024078326 -0.04733975 -0.0658602 -0.03935183 -0.13195983 -0.09376933 -0.0071996716 -0.07052545 0.008201943 -0.036612175 -0.027383348 0.059357475 -0.021272535 -0.0051946077 0.1550658 0.16000727 0.099223465 -0.016860535 -0.019573752 -0.050804522 -0.064169966 -0.06954028 0.00924054 -0.052717302 -0.02975231 0.057300035 0.025161453 0.043043297 0.0012184217 0.08070711 0.020382047 0.01720647 -0.059594035 -0.008528152 0.042220265 -0.08079131 -0.098993994 -0.09336149 -0.05564633 -0.012630231 0.04477017 0.018668514 -0.012375735 -0.063465215 0.15457234 0.18037876 0.1093535 -0.041574366 0.040403415 0.08835233 0.10175612 0.042415425 0.05968767 -0.048633534 -0.031202184 -0.07938551 0.0018560811 0.063995674 0.03409982 0.017126981 -0.02218369 4.823662e-05 0.07004486 -0.008256949 -0.066626884 -0.06866672 -0.00631407 -0.08217625 -0.08027815 -0.0054644905 -0.051140577 -0.068980016 -0.015768124 -0.063475 -0.035378534 -0.015672198 0.029153239 -0.03358386 -0.09125393 0.07536811 0.013434428 0.03187871 0.009648498 -0.10020395 -0.01464255 -0.019790277 -0.015944647 -0.083394594 0.057381358 -0.05417203 -0.0400474 0.039079234 0.025031181 0.051680315 -0.07882129 0.06575946 0.00661849 -8.2997394e-05 -0.057976063 0.06512616 0.043278117 0.065868504 0.030855965 0.058085106 0.11638899 0.0034923188 -0.05639246 0.030888015 -0.042180903 0.03231356 -0.004717415 -0.09259792 -0.116061576 -0.10564725 -0.10897566 0.037071954 -0.041407503 0.040026497 -0.12340659 0.025233582 0.094045244 -0.0021804287 -0.0112659065 -0.077070855 0.0478263 -0.0016449405 0.064178474 0.0017928594 -0.08525867 0.064160936
0.021422148 0.046737045 -0.0770908 0.003707078 0.038628247 -0.04961558 -0.040515337 -0.06476378 -0.07475135 -0.029183349 -0.21269111 -0.14137125 -0.17304423 0.043177858 0.0067169834 -0.10872754 0.01942271 0.08628801 0.093096115 0.022277059 0.14331788 0.10544972 0.22784835 0.19091065 0.03710901 0.052103925 0.030878216 0.00395308 -0.06545116 -0.08711521 -0.06951175 -0.14759208 -0.17886521 -0.20771582 -0.07000606 -0.16958109 -0.15339972 -0.010572289 -0.029510908 0.05609581 0.04386766 -0.049444944 0.14574875 0.1308302 0.07163578 0.101430446 0.12738213 0.22430313 0.16184337 -0.033513572 0.045204934 0.07173457 -0.0046780584 0.054537416 0.087955125 0.032523505 0.0359895 0.041388813 0.10022336 -0.037820596 -0.03725418 -0.030088779 -0.029048054 -0.076327644 0.0055624554 -0.03244193 -0.09987237 -0.024318634 -0.09805002 0.14902839 -0.08258959 -0.079670824 -0.05648824 0.11502194 0.14246652 0.024613872 0.08273173 -0.066082194 0.0257254 -0.09603856 0.0015678975 -0.025823813 -0.123601265 -0.08219694 -0.0054887994 0.0029061744 -0.0384875 -0.03318541 -0.013020483 0.0065825013 0.053789765 -0.03013443 -0.05606118 0.082666986 -0.027721448 0.051225662 0.06717209 -0.010571878 -0.09038429 -0.075226575 0.011669498 -0.079901144 0.066729866 -0.08337031 0.016355598 -0.08273507 -0.02197529 0.015517055 0.02544126 -0.023071006 -0.0405283 0.0012277996 0.023142578 0.025391148 -0.04770024 0.065132275 0.085838884 0.07918381 0.06695867 0.07221116 0.006122927 0.011046796 0.020597303 -0.05139136 0.019564185 0.06171898 -0.06693631 0.06463318 -0.008901765 0.08973336 -0.04301854 -0.007947496 0.04720629 0.031276353 0.009238546 -0.018387282 0.0075003803 -0.07546947 -0.102651134 -0.04468295 -0.0123705305 -0.070653625 -0.035135143 -0.022088028 0.13217732 -0.066787444 0.02381205 -0.03367705 0.072131015 0.11106532 0.030109338
-0.00017135656 -0.12862223 -0.07629636 -0.06522167 0.0070586056 0.009962083 -0.021753939 -0.05760946 -0.21387084 -0.14416535 0.107500896 0.19010474 0.11377393 -0.0043270364 -0.24067685 -0.09420885 0.11619949 0.15489726 0.15818208 0.032963987 0.009102494 0.054070603 0.12069527 0.12498772 0.119445734 0.02383717 0.047344163 -0.04187472 -0.07228279 0.08076486 0.001669363 0.04351839 -0.021697003 -0.14042139 -0.16963728 -0.060270138 0.15643685 0.11904403 -0.041766513 -0.11942007 -0.09801728 0.018019177 0.10561569 0.10940111 -0.046993688 -0.113831624 0.06943881 0.08351374 0.025786292 0.12541316 -0.025941998 -0.08239039 0.052301776 0.10486824 0.13939947 -0.031055681 0.07550942 0.06807775 0.07788498 -0.027320044 0.027156474 0.08349767 -0.12855248 -0.09602539 -0.099663734 -0.02775845 -0.0041102623 0.001360723 0.004996286 -0.1503639 0.072268285 -0.0859649 0.047697794 -0.07180562 0.028172728 -0.078018926 -0.04611529 0.019571135 0.086782336 0.033483274 -0.04940861 -0.04794012 -0.121721365 0.008809871 -0.03312637 -0.020715328 -0.0051351767 -0.06450596 -0.11291559 -0.054790575 0.08406985 0.0035812594 0.07724483 -0.12369565 -0.1575664 -0.041399717 -0.01336485 0.13395272 -0.03342814 0.029871885 -0.057414617 -0.038651917 -0.067578726 -0.08668864 -0.017116154 0.04452342 0.085132405 0.06340034 0.012899591 0.058563836 -0.04930286 0.06517565 0.10364868 -0.034032244 0.0675075 0.021327686 -0.05579718 0.080608435 -0.026733693 -0.051933106 0.06336188 0.029954966 -0.05964086 -0.041371275 0.05290816 0.012811768 0.03464369 -0.022400575 0.047568917 -0.010589047 -0.034635823 -0.031122588 -0.053263843 0.090590306 0.15846133 0.14605254 0.015707213 -0.017977655 -0.0029015148 0.04034174 0.13959652 0.090042226 -0.03147957 0.022118106 -0.04264698 0.03400653 0.06424313 -0.028646605 -0.008375232 -0.089419656 0.07236774
0.0524812 0.06332153 0.017176017 0.003841421 -0.08514647 -0.043702498 -0.0039917566 0.028424978 -0.024748396 -0.02894392 0.083344385 0.028376864 0.18207426 0.018994413 -0.055717316 0.0067498754 0.116156384 0.16648163 0.046169803 0.008729979 -0.12335065 -0.032548133 0.08623775 -0.0042774146 -0.056019664 -0.05359334 -0.07338883 0.042490806 0.07216678 0.006755466 -0.04105246 0.024883116 0.022696178 -0.06516273 -0.021741392 0.049111407 -0.014156755 0.083986305 0.023104833 -0.020107826 -0.12867895 -0.082170226 0.1337941 0.1597022 0.064032584 -0.031687014 -0.09973368 0.093203865 0.03243834 0.041218646 0.064942226 -0.011419842 -0.052595932 -0.08654411 0.06925334 -0.041986406 0.0343635 -0.05818061 -0.026556471 0.0046936655 0.07710687 0.017606331 0.0035737492 0.026459089 0.017839367 0.022998542 0.021202156 -0.092045814 -0.024945585 0.07949801 -0.063341334 -0.08042071 -0.0023357263 -0.018021671 0.073517755 -0.009715667 0.08265818 0.06869076 0.003803212 0.10534239 0.066901155 0.18470995 0.09932501 0.071883276 -0.00726716 0.029592492 0.07202551 0.048764173 -0.08621204 0.036121856 0.049657557 0.09525025 -0.05283896 -0.07166522 -0.09290897 -0.10310452 0.022585412 0.026780311 -0.02327156 -0.114234746 -0.015561041 -0.04592826 0.023448996 0.047640517 -0.057254024 0.016084056 -0.001518179 -0.05938981 -0.07952493 0.08696751 0.03272613 -0.066420265 -0.023243228 -0.06493834 0.0530662 -0.056679085 -0.08383955 0.08536818 -0.009614478 0.0897908 -0.0144782765 -0.037345313 -0.04074678 -0.03000174 0.018690025 0.045494016 -0.10730006 -0.024597555 0.052089453 0.055351954 0.017931577 -0.115454495 -0.057824716 -0.012294518 -0.010116789 -0.039277334 0.01956134 -0.00716472 0.06074778 0.01979837 0.14312312 0.19188838 0.105837755 -0.014383836 0.024594259 0.05703506 0.1542497 0.07441226 0.020311777 0.08287934 0.038226984
-0.041517634 0.06452028 -0.047940064 -0.064574376 -0.07362162 -0.072112925 0.015347213 -0.0517785 -0.07545057 0.024916528 -0.07951369 -0.041096937 0.0008910454 -0.09359829 -0.06789499 0.06277645 0.10892745 -0.026583709 0.030661894 0.07091886 -0.018187426 0.031081872 -0.027209746 -0.040640693 -0.045310505 0.06487431 0.050697 0.04698773 -0.054866165 -0.10260759 -0.0823657 0.07719699 0.026986634 -0.087409794 -0.004384317 -0.0010180403 -0.07364121 0.05983212 -0.06303894 -0.02585655 0.006087345 -0.011797598 0.051446028 0.05287162 0.03943408 -0.031342268 -0.10041783 0.023062076 0.0124700805 0.020433119 0.073134474 -0.06335899 -0.08542612 0.046613302 -0.06973574 0.021257345 0.015767954 -0.085478954 0.019429117 -0.0408237 -0.04960937 0.08176003 0.018258484 -0.06773973 -0.07900617 0.061051764 0.016338699 0.04557868 -0.012285887 -0.08143652 0.012136949 0.07776115 -0.0008672769 0.03288538 -0.01707477 0.039279018 0.14364918 0.03260019 0.11479407 0.15066394 0.11182341 0.18063597 0.016289584 0.043751348 0.15773542 0.1240237 0.1300856 -0.008145458 0.12013902 0.085246794 0.030923486 0.11303573 -0.017518077 0.022287915 0.042872984 -0.005245349 -0.063107856 0.012422082 0.058711696 -0.019577637 0.028017307 -0.07936172 -0.04068745 -0.035727154 -0.04535046 -0.011538889 0.056031134 -0.04705263 -0.060161274 -0.028716912 -0.0002786548 -0.044892337 0.06361175 -0.02463359 -0.07023041 -0.039736446 0.025503198 0.06796054 0.06983012 0.0021465935 0.08361728 0.0028184503 -0.0076245246 0.07929607 0.065679245 0.0057022264 -0.013937247 -0.11901879 -0.08333884 0.032444876 -0.06123659 -0.03874151 -0.1195579 -0.096619636 0.038914833 -0.051255543 -0.06395699 0.028737 0.031056806 -0.08379577 0.09745001 0.026329998 -0.07516283 0.009607634 -0.0014103833 0.11663906 0.11712783 0.07403764 0.058342718 0.031361848 -0.027638916
-0.08002275 0.02440475 0.011738417 0.10485395 0.015128238 -0.15546857 -0.13203484 -0.059123073 0.031758454 0.12798955 -0.09002165 0.028258886 -0.13627669 -0.02585007 0.07928113 -0.028477367 0.024796287 0.063333064 0.10237332 0.118709296 -0.023789562 0.08121074 0.036737155 0.04120326 0.10938017 0.00083041855 -0.06629721 -0.093050614 -0.0245956 -0.007497206 -0.11615289 -0.15341079 -0.09403153 -0.10735017 -0.06488107 -0.031610176 -0.016529359 -0.09388819 0.090859495 0.04987248 0.11500802 0.06577187 0.023634247 0.09062606 0.11678677 -0.07428051 0.018617563 0.033362236 0.07992554 -0.021807328 -0.0488307 0.028697053 0.026238004 -0.06383325 0.05233056 -0.029164964 -0.0603078 -0.017344538 -0.019419152 -0.0011658052 -0.064810835 -0.054610234 0.004436076 -0.0935522 -0.009290986 0.058446825 -0.05364182 0.049864225 0.058297276 0.084106445 0.024586204 0.027766574 0.04362281 -0.01921251 0.026634468 -0.018541751 -0.034368977 0.028339079 0.039803807 0.04799022 -0.08971265 -0.0039044989 0.032632966 0.015984802 -0.01943035 -0.025372466 -0.01936057 -0.0031774705 0.02824897 0.13254744 0.022257207 -0.082315564 -0.05087153 0.088218 0.096353784 0.05493237 0.027690176 -0.010825036 -0.009188929 -0.035761658 0.045661367 0.07155389 -0.022525344 0.04137881 -0.00343106 -0.05250513 -0.05344549 0.05725168 0.00028777018 -0.05907107 -0.027665092 0.049900237 0.0029625564 0.069130376 -0.0051379306 0.009725043 0.030129913 -0.02950945 0.004648559 0.056026045 0.003608497 0.034074306 0.049162995 -0.06655842 -0.035630643 -0.06135005 -0.005483965 0.042216443 -0.027271288 0.030877149 0.022322519 0.08234699 0.092060104 0.10999556 0.051178616 -0.029943112 -0.06270806 0.0054009785 0.020432621 -0.103247955 -0.0370443 0.05868693 -0.08354527 -0.05447817 0.01980569 0.11165801 0.042083386 0.077634715 0.0087978905 0.011861946 -0.024928654
0.0155839445 0.0724699 0.03045029 0.04396263 0.023163334 -0.029188555 0.095092684 0.15117073 -0.019194828 0.018695595 0.04687025 0.1715064 0.14908412 0.064413 0.008852344 0.07944782 0.051252645 0.052304067 -0.098844096 -0.111825556 0.064805046 0.04719448 -0.10961564 -0.04132329 -0.04981609 -0.012490477 0.044055395 -0.05343807 0.051172316 0.0678892 -0.10417246 0.029086584 0.0499483 -0.035150345 0.040822238 -0.06596839 0.0492284 0.026130574 -0.071563646 -0.029374667 0.025522579 0.007948103 0.035191234 -0.12137454 0.016761648 -0.081638195 -0.035664465 -0.008312136 0.03639785 -0.11644915 -0.04837876 0.0566108 -0.045862917 -0.086974256 0.08031622 0.0097216405 -0.09275525 -0.1298682 0.019507535 -0.023684546 -0.08472844 -0.10639501 0.021901438 -0.0120945675 -0.044205718 -0.100847416 0.08779922 -0.0150767425 -0.04506103 0.050001275 -0.022411581 0.06906569 -0.08173781 0.04026835 0.06901741 0.08084871 0.13200814 0.17957042 0.06876436 -0.010429687 0.081834875 0.19854401 0.04505873 0.089337 0.019970067 0.1019242 0.11556405 0.06433058 -0.053166542 0.015473478 0.18073556 0.068090364 -0.07845841 -0.1264561 0.0027662143 0.16973446 -0.034344893 -0.05555224 -0.022430541 -0.011435863 0.01601887 -0.008419427 0.00036626303 -0.07399007 0.070748866 0.045116622 0.032536987 -0.047077294 -0.022175848 0.081707716 0.056067012 -0.09604881 0.048497226 -0.08008285 0.045322813 0.049794026 -0.015689313 -0.057935335 -0.062532075 0.072869174 0.047720227 -0.04629342 -0.053352736 -0.014675592 -0.05186254 -0.0080894595 0.037634593 -0.071936324 0.036724195 0.05117897 -0.06221272 -0.1004351 -0.061704427 0.048616283 0.014218164 -0.08920798 -0.11737269 -0.05711441 -0.04815429 0.07717452 -0.06810189 -0.030956114 0.06691721 -0.00851548 -0.0018250804 0.046167467 -0.013365983 -0.025559703 -0.003182378 0.05356678 -0.03983151
0.024428034 -0.017781802 0.032771517 0.058691233 0.08525234 -0.06620674 0.035503328 -0.12787163 -0.061270412 0.12935127 -0.010867083 -0.03697477 0.038276426 0.000694621 -0.101871476 0.022369085 0.061777353 0.06757937 -0.016146915 0.05352692 -0.021718621 -0.011613972 -0.011619531 0.065843806 0.06259422 0.060824383 -0.038482197 0.12667456 0.06376236 0.15231858 -0.06029659 0.02312591 -0.051743757 -0.056436833 0.042527225 -0.079172336 -0.11624366 -0.040143654 0.006512947 -0.0593674 -0.024967005 0.089032084 0.1398342 0.097227596 0.065670624 0.07563771 -0.0747898 0.07544415 -0.039955936 -0.006921817 -0.06425851 0.025889738 0.007110273 0.079932794 0.1297704 0.0022613113 -0.026574947 0.013274209 0.16293046 0.09852766 -0.037074193 0.06923 -0.0064061964 -0.058900908 -0.056336455 0.013745019 -0.07908674 -0.0058901557 0.05810965 0.100858934 -0.031128244 0.09057035 0.09063057 0.08737917 0.012408667 0.057422344 -0.034015846 0.05368386 -0.04892257 -0.11234492 -0.06501923 -0.034607973 -0.07319947 -0.0958452 -0.0124104675 0.06089477 -0.071224146 -0.10431919 -0.019658512 0.013919899 -0.07939366 -0.104709364 -0.06105565 -0.065540835 -0.12101704 0.027640928 -0.07694232 -0.04678169 -0.07708852 -0.002120493 -0.0817802 -0.021449046 0.06593724 0.046663865 -0.03104822 -0.011162427 0.0020904257 0.062293284 0.037495725 0.030610904 -0.014617296 -0.012982264 0.07719623 0.053134672 0.051002625 0.01532322 0.056616113 0.037129626 -0.013120965 0.084402315 -0.023996592 -0.043181717 0.05715365 0.04365445 -0.040757418 -0.043121412 0.06430259 -0.015031818 -0.036276918 -0.029854877 0.0149680935 0.047587242 0.04641733 0.20419881 0.16926214 -0.035355993 -0.011075692 -0.002587163 0.022909964 0.07836892 -0.0036627015 0.068881564 -0.014980185 0.016727706 0.011513691 0.014299502 0.013881641 0.029540412 0.16400681 0.063544534 0.03517163
-0.019995283 -0.047740467 -0.02657433 0.01768589 0.00041703304 -0.035844695 -0.035817098 0.031707328 0.00447035 0.0145126255 -0.022098295 0.031005481 -0.045402344 0.010927968 -0.033315763 -0.03551973 0.049816255 -0.037537154 0.012405926 0.005368775 0.03374458 0.01960888 0.034111243 0.010518763 -0.056198657 0.009812171 0.014382601 -0.0042067356 0.014739214 0.012423567 -0.011211011 -0.047554523 0.028478643 -0.01687702 -0.07159754 0.01704346 -0.059214238 0.058301233 0.037117727 -0.017356325 -0.06165982 0.016685752 -0.036075298 0.0007960238 0.018543065 0.008120612 -0.0033193855 0.00036316094 0.02517786 -0.010721549 0.004341057 0.050233614 0.080852315 0.044992443 0.032317728 0.017053545 -0.040957753 0.0419733 -0.008753742 0.015498378 0.010213784 -0.034799907 0.04418006 -0.05578677 -0.04113968 -0.005294235 -0.07516286 -0.07416612 0.006401922 -0.056556925 -0.0028452184 0.08966125 0.08076096 0.041712586 0.07854356 -0.014940471 0.029417092 -0.03816448 0.037892323 0.01950033 -0.034095727 -0.022107743 -0.05666915 -0.0036163456 0.0105914185 0.017750442 -0.00856139 -0.022508858 0.012086457 -0.005487693 0.012962026 -0.013131962 -0.037903797 0.012106009 0.018072246 -0.039892677 -0.005901158 0.0028703052 -0.024633069 -0.019504769 0.014936894 -0.035491683 -0.026363961 0.0043805065 -0.018074365 0.0052094464 0.018449811 0.00081057136 -0.04949334 0.0027351652 0.035979446 0.0166987 -0.056382727 0.027833374 0.012750719 0.0067847758 0.04370275 0.040170334 -0.021506079 -7.167127e-05 0.050954852 0.020107813 0.06513448 0.013809718 0.037667464 -0.001454765 0.042948008 0.04127435 -0.007953185 0.013810663 -0.046166968 0.003052336 0.018966708 -0.0015622716 0.04368975 0.05714711 0.010777692 0.07152578 0.03179265 0.017119253 0.016209923 -0.009160976 0.0030137291 -0.032087278 -0.00017660076 0.039204158 0.010314002 0.045309175 -0.026151827 0.009975437 0.011645416 -0.041338313 0.00864451 0.018499134 0.035055984 0.042444214 -0.028528683 -0.06424255 -0.055452295 0.005937085 0.05165942 -0.007708766 -0.019551657 0.03316363 0.023869628 0.036302183 -0.0051243445 -0.0034466172 0.036530253 0.016708659 0.023237608 -0.049896963 -0.04185148 -0.044981007 0.060449705 0.0384467 -0.032906167 -0.009824608 0.005334135 -0.04636051 0.05406375 0.025673615 -0.018593669 -0.02430212 0.04920656 0.025920965 -0.04042114 -0.017911209 -0.02815624 0.04854754 -0.0034755305 0.029001031 -0.048260946 -0.028411971 0.055440072 0.045794964 -0.016331935 0.028936122 -0.005907943 -0.023054438 0.0027952844 0.024539666 -0.016137194 0.025076423 0.04084952 0.016456824 -0.0048361677 -0.03944284 0.008944018 0.012013039 -0.048477564 -0.033647846 0.029207427 0.05074578 -0.04126125 -0.04750161 0.021583807 -0.053042755 -0.019650374 -0.04899115 -0.0025537729 0.0144485375 0.037145134 0.002450404 -0.030523136 -0.032332435 -0.03368429 -0.0283311 -0.052660838 -0.029781139 0.050611276 -0.02774913 0.036186974 -0.070507795 0.04006464 -0.018052345 -0.0060929926 0.040793225 -0.105317555 -0.011462415 -0.003744185 0.045343675 0.009965872 0.020821305 -0.009447027 -0.028107775 0.06881332 0.102301866 -0.038968083 -0.04361364 -0.053054634 -0.00079519575 0.015521064 -0.038428422 0.012245888 -0.045044307 0.026797526 0.02580636 -0.01465134 -0.006628603 -0.006446404 0.056806788 0.05212866 0.008764341 0.055064246 0.055642396 0.034042552 0.10517703 0.06644813 -0.026830077 0.021007799 -0.024432577 -0.008647455 -0.033032104 0.02203578 0.0007638929 -0.001068128 0.068003476 0.053737536 -0.03176787 -0.007870939 -0.014003529 -0.012009491 -0.01314152 -0.018340964 -0.03358315 -0.053908654 -0.011347651 0.0014071671 -0.0048275758 -0.06501544 -0.025039796 -0.0023057142 -0.091510095 -0.053428296 0.040301308 0.107726425 0.07665322 0.08981088 0.010098318 -0.016999662 0.03705237 0.003000709 -0.020453153 0.010981528 0.0081246765 0.029659538 0.019488106 0.0051526683 -0.026150525 0.03677625 -0.050290827 -0.03542076 0.023803176 0.015827399 -0.014327639 0.012702597 -0.0031990325 -0.02158145 -0.030925473 0.04507715 0.009261881 0.03018238 0.040827043 0.050252203 0.045787018 0.021269716 -0.014579813 0.033612333 -0.027248599 -0.00896991 -0.043076284 -0.037684236 -0.040151052 -0.0037452406 -0.0063234624 -0.034248017 -0.011828118 -0.039736304 -0.04100431 -0.03829466 0.041697107 0.026408086 -0.05051012 0.0028737078 -0.030085 0.049184233 0.023738984 0.023057254 0.043076765 -0.012126908 0.028042687 0.023007587 -0.04805518 0.024681812 -0.013182635 0.0424864 0.062056858 -0.046572097 -0.051627953 0.0052674417 -0.06713999 0.029431442 -0.03813677 0.034929525 0.026617138 -0.03378741 -0.015661364 -0.0107812295 0.04660732 -0.0033366228 -0.011806658 0.001202074 0.06800217 -0.040625475 -0.017897282 -0.023498826 0.04910042 0.0071874727 -0.0297041 -0.025624005 0.004213849 0.07825497 -0.0037375109 -0.0058210855 0.027714832 -0.02624252 0.018700324 0.0034091927 0.0040745083 0.025002513 0.047818135 0.06490216 0.0017341141 0.03633317 -0.009503501 -0.008610105 0.022626666 0.027433138 0.0013387284 -0.017080462
0.028806547 0.022799429 0.032097388 -0.05093829 -0.0027320858 -0.014070562 0.031169908 -0.0004304936 0.002509269 0.025055738 0.029163769 -0.042461835 -0.014350236 -0.0060477355 -0.022063619 -0.035181466 0.030979494 0.008302956 -0.0009648784 -0.0027344641 -0.02816974 0.041801434 -0.040404107 0.03829753 0.011789916 0.018269764 0.03402096 -0.0074991593 0.0233885 0.030564489 -0.0012078552 0.039381992 0.04503841 -0.02265 0.043224715 -0.032650277 0.03549618 0.029277066 -0.06347602 -0.0044420226 0.042133506 0.036592282 0.007400401 -0.009817576 -0.03139043 0.041273024 0.032437403 -0.04143474 0.031818584 0.027609192 0.03299985 -0.03752902 -0.07281576 -0.025638789 0.01684574 0.012138112 0.03495252 0.0040572383 -0.048834693 -0.037474114 -0.028258547 0.04069929 0.053617008 0.030143715 -0.011991648 -0.0076686367 -0.013418793 0.017282404 0.028573267 0.040309075 -0.010041248 0.015708396 0.019553168 -0.037781652 -0.04739594 0.001452599 0.026855722 0.00901038 -0.021205135 0.025702417 -0.018344885 -0.010350262 -0.022418229 -0.04444788 0.03549961 -0.0116502335 -0.042564634 -0.014879903 0.020007767 0.041664064 -0.006616186 0.044150654 0.0256748 -0.022196392 0.00064120855 -0.051582634 0.030683918 0.025413282 0.004207411 -0.05025024 0.020048015 -0.03992249 0.03085436 -0.06597182 0.049728442 0.024722818 -0.0035366113 -0.022276305 -0.029073816 0.0028262346 -0.029034264 0.04398465 0.04332454 0.032628827 0.04825129 -0.027326131 -0.0016162301 -0.0026198747 -0.04182804 0.014073087 0.040093984 -0.029692864 0.009527675 -0.030502135 0.029310336 -0.016931636 0.010928566 -0.051508173 -0.050349303 -0.03661357 -0.0010394335 -0.063528985 -0.044426728 9.958525e-05 -0.016498646 0.03295338 0.019107845 -0.046533503 -0.03752464 -0.019498968 -0.029921347 0.032696057 0.0023678006 -0.016306093 0.0031212787 -0.015085179 -0.033245966 0.046646852 0.031579666 0.024520075 -0.0013644227 -0.038618032 -0.033559874 -0.027702833 0.0022462008 -0.013153334 0.05131702 0.008324184 0.03764656 0.050424404 -0.025883729 0.02214048 -0.033054348 0.029689895 -0.009444415 -0.037416503 -0.011368294 0.021852935 -0.014458952 1.2802348e-06 -0.03416264 0.024661528 -0.0016499765 0.015540352 -0.0041339174 0.03678909 -0.01835483 -0.04141263 -0.022272892 0.006424851 0.04418647 0.014635393 0.012397564 -0.012006323 0.005362778 0.0077117933 0.010669257 0.02304447 0.027686328 -0.0044785007 -0.025255263 -0.05147623 0.05310381 -0.032447822 0.011623843 0.018997597 -0.041256245 -0.01936029 -0.005594123 -0.01200494 -0.008197982 0.046093956 -0.036934618 -0.018855978 0.027070116 -0.03095744 -0.03403457 -0.03502836 -0.014739528 -0.0007310218 -0.037733342 -0.009818325 0.0007272356 0.0039546257 -0.010869988 -0.040958706 0.042591486 0.04165448 -0.00075411773 -0.042308383 -0.010609376 -0.029386103 0.025513925 -0.011208928 0.029322958 -0.05216861 -0.050151378 0.042914044 0.04191027 0.04204896 -0.024645654 -0.01726482 -0.004105149 -0.01329179 0.0011367972 -0.002726514 0.021883132 -0.03166157 0.01158727 0.020759681 -0.049535602 -0.023064118 0.0016942467 -0.013080634 0.015054826 -0.05171021 -0.0527421 -0.051231578 0.025256725 0.031259205 -0.0060531776 0.049373277 0.006664165 -0.050735664 -0.020170879 -0.01845139 -0.01520921 -0.049279902 -0.035835665 0.03142152 0.009502226 0.027021904 0.051052816 0.04754214 0.053955466 -0.01567183 -0.0024757339 0.016307525 -0.019680163 0.011256751 -0.014741703 0.02659889 -0.028015712 -0.0049610883 0.0431039 0.019191725 0.021262048 -0.025936883 -0.066078365 -0.04228756 0.04445426 0.03622211 0.013918669 0.04639622 -0.0042750514 -0.03273876 0.029182307 0.044451326 0.003271188 0.036886513 0.040176455 0.047355898 0.049316045 0.0129957255 -0.016161162 -0.03264322 -0.047391508 -0.0078169145 -0.024526265 -0.009448823 0.010588439 0.021998199 0.017794978 -0.021073237 -0.044323247 -0.03829042 0.016567169 0.025062826 0.002481498 -0.019146021 -0.0021077495 0.019663824 0.02214574 -0.019674603 0.027774187 -0.015615416 0.044283185 0.03796111 -0.009873208 -0.0011051645 -0.0503705 -0.0101443175 -0.021378046 0.009566621 0.05198777 -0.028730664 -0.024884317 -0.03264872 0.012496314 -0.027984658 -0.028654246 -0.035161 0.00012079837 -0.009970412 0.024045499 0.012239105 -0.014677022 -0.00978609 -0.006005675 0.024330026 0.046986084 -0.032091953 0.04747238 -0.024810849 -0.03688526 -0.026672967 0.01827495 -0.017636973 -0.030130237 -0.03277944 0.057679802 0.057873268 -0.041435193 -0.013198905 0.018725486 0.043513387 0.04590026 -0.0010022763 -0.015534969 0.022565195 0.00246804 0.031824414 -0.03216242 -0.01852368 -0.016746363 -0.015104157 -0.009504566 -0.024859332 0.023917759 0.05948774 -0.023138156 0.017810835 0.01954636 0.01767622 0.00767176 -0.023067482 -0.012920567 -0.011861653 -0.0057781786 0.017318683 0.0072717876 0.02674935 -0.022463918 0.034838255 -0.023947934 0.006841275 -0.027415404 0.029826734 0.03675429 -0.014756273 0.04111033 0.041599166 -0.0010459751 0.05573099 0.030404644 -0.02847628 0.044643655 0.008767148 -0.017275987 -0.018699946 -0.041367047
0.030548852 0.025013445 -0.005760822 -0.049494274 -0.016542418 0.04796704 -0.017072205 -0.049569223 -0.027480837 0.026305301 -0.018581705 0.03738262 -0.010943995 -0.020015037 0.022306338 -0.015753468 -0.043326195 -0.030621316 -0.042194076 -0.016268767 0.0035294876 0.0400492 -0.014504656 -0.02299029 -0.034856424 -0.026300887 0.012863913 0.006564583 0.035189774 -0.006787655 0.0151962815 -0.047593024 -0.038459495 -0.055148575 -0.06683177 -0.014421762 0.032582402 0.045537654 0.008282604 0.026969614 -0.043190535 0.0077887024 0.042472873 -0.015290274 -0.015999317 -0.019561877 -0.023544077 -0.07038714 0.028985796 0.038702074 -0.038902894 -0.017577514 -0.013528354 0.00087743934 0.0703252 -0.037108015 -0.033991773 -0.0029242605 0.03357374 -0.002416691 -0.05836831 0.025401441 -0.011264366 -0.028393116 -0.030814843 -0.05707691 -0.0052332934 0.011918469 0.054725174 -0.026690958 -0.03834721 0.065615535 0.044386495 0.01122146 0.02951858 0.033306792 -0.03016857 0.040380046 -0.0026437542 -0.017889997 -0.030689249 0.00882189 -0.02798277 -0.024078049 0.01274772 0.008295877 -0.034782615 0.047943085 0.024962775 0.034102175 0.010265389 -0.027031254 -0.048825175 -0.024128567 -0.022445422 -0.010590496 0.037609253 0.011136044 0.038379524 0.040429756 -0.014201898 -0.0010988511 0.029475443 0.012059623 0.0448084 0.00042873272 -0.026254967 0.0053675296 0.057150535 -0.03304336 -0.028582 -0.0056479434 0.027094422 -0.032430362 0.011488739 -0.03963014 -0.06939635 -0.0609569 0.039955597 -0.022528855 -0.028918702 -0.024550425 -0.021870183 -0.016864123 0.00803373 0.020747997 0.016640771 0.016675415 0.026874196 0.06254343 -0.05267396 -0.06413475 -0.022987714 0.04954204 0.07399062 -0.011912604 -0.01531908 0.030374972 -0.0075208354 -0.005383056 -0.05324074 -0.035931177 -0.010357279 0.061426945 0.009247364 -0.025680311 0.0025091153 0.0020138344 -0.035674367 0.017423023 -0.043732982 0.005161972 0.021527737 0.030096307 0.0451366 -0.035120487 0.033041768 -0.04246271 -0.036488548 0.028176025 0.008144489 0.017730094 -0.02111269 0.03369753 0.016790979 0.0040672882 0.025827236 -0.009663002 0.027217483 -0.014662644 0.043656725 -0.0400901 -0.06459972 0.0037604605 -0.022248331 0.029986039 -0.009960448 -0.020845007 0.03674761 -0.03174209 0.04361529 0.040882006 -0.026395788 -0.049981434 0.04863531 0.016219858 0.029711898 0.034848068 0.030929107 -0.013523122 -0.023293762 0.0066637094 -0.00020801602 0.0119300885 0.04480437 0.0040677353 0.0061557526 0.052546807 -0.02776098 -0.013383904 -0.029231854 -0.02061345 -0.009796462 0.024306376 0.06694185 -0.015477388 0.018293573 -0.00807813 -0.006776899 0.020250238 -0.0034005686 0.0025293266 -0.0067944657 0.005590616 -0.030825622 0.04781247 0.042101532 0.022733834 0.038806036 0.002022258 0.023603462 -0.0093340585 -0.03225363 -0.01367177 0.047012545 -0.01946739 0.04233007 -0.035050713 0.012061935 -0.046924654 0.046118665 -0.03971138 0.048254114 0.043280855 0.063014105 0.011478438 0.031425964 0.03882462 0.0006322433 -0.0448871 0.0043860865 -0.03631449 -0.020765094 -0.04628186 0.0031936737 -0.039586842 0.025047176 0.060863636 0.018966744 0.0056620766 -0.03692138 -0.07303154 -0.043310307 -0.024945216 -0.013441651 0.00041774378 0.07444691 0.019675879 0.055736296 -0.030474229 0.029291134 0.056794498 0.042942375 0.041620255 -0.0061369496 -0.061057612 -0.06548075 0.013817952 0.09915814 0.074861735 -0.004233649 0.013691592 0.0075190575 -0.0028929713 0.05164091 0.024904603 -0.006398234 0.03476274 -0.016214129 0.025808873 -0.018101875 0.04647532 0.072571225 -0.015994864 0.0014263957 0.038175177 -0.057942208 -0.03389887 -0.0094432095 -0.019577824 -0.0018863879 0.03235957 0.012293596 -0.03620465 -0.012283163 0.009032373 0.070534974 0.008415269 0.040850434 0.042692535 0.0023172467 -0.036456794 0.0005104677 0.00024079985 0.05350485 -0.01631033 0.042571463 0.027293375 0.008060444 -0.030814653 0.042858943 -0.016584925 -0.049465466 -0.019488694 0.042661384 0.0042106234 0.054801106 -0.034773502 -0.020253232 -0.023161933 0.03449596 -0.00021292454 -0.05224705 0.03647386 0.05765214 0.03198685 0.0058324025 0.009559288 0.021697668 -0.025663182 0.001458842 -0.05359331 -0.03084696 -0.009201329 -0.01797954 0.019362012 0.07281974 -0.011907639 -0.066908434 -0.019461945 -0.024619173 -0.013811254 -0.054884326 -0.02775012 0.03166468 -0.064822204 -0.02218727 0.020359706 0.02485094 0.0492723 0.019035872 0.0004229765 0.06261091 0.0040090005 0.009110527 0.011963324 -0.0013832417 -0.035810497 -0.015111326 -0.039648447 0.033298153 0.03403811 -0.0026405465 -0.014461259 0.03135088 0.060008653 0.06528197 0.020230038 -0.038764194 -0.051554013 0.008756623 0.020797888 -0.020264229 -0.014265357 -0.0130077135 0.03592203 -0.0033901045 -0.008623588 -0.034498032 -0.035533126 -0.024487915 0.0409193 0.014717306 0.018502623 0.0019470745 -0.034329463 0.03590835 -0.024589876 -0.004711916 -0.053915452 0.027006792 0.0052948147 0.024691055 0.0294001 0.017557709 0.021409372 0.039739545 0.021252973 0.02063322 -0.029080547 -0.0071113147
0.05869406 -0.02723909 -0.0007374117 -0.061925307 0.011074407 0.054159235 -0.029776722 -0.050139815 0.023255205 0.016744455 0.013879333 -0.0022566947 0.007489233 -0.0177646 -0.0385165 -0.038178947 0.00041120258 -0.040242866 0.047860786 0.0037916887 -0.011172879 -0.06837723 0.025695352 -0.0049796975 -0.013993111 -0.045786526 -0.035871454 -0.025681114 -0.0016646255 0.017025013 -0.009669645 -0.027153162 -0.011974012 0.0031464084 0.030155 -0.00884437 -0.00071193045 0.022407131 0.041112967 -0.014566669 -0.0035103029 0.059816517 0.018636234 -0.03262283 -0.0026165743 0.02347936 0.03568758 0.07594749 -0.0012345413 0.04740059 -0.03221561 0.044129297 -0.01186539 -0.039107196 0.032349978 0.030009324 -0.02186019 -0.026717326 -0.044765815 0.015119145 -0.003034081 0.061348878 0.050885167 0.013885939 0.019566556 0.08639217 0.05118795 0.059335217 0.0027270014 0.02803821 -0.028352931 -0.049711205 -0.009610915 -0.022846842 -0.008298253 0.0015486788 -0.025836883 0.047066305 0.026457239 -0.019509904 0.03990595 -0.009205747 0.039414737 -0.03413638 0.035863295 0.009261422 -0.007592083 -0.026338875 0.047189616 0.03886855 0.020131283 0.038646836 -0.018213965 -0.0028834234 -0.031210724 0.016292071 -0.020675529 0.043251395 0.024211545 0.02254637 0.047741286 -0.04498508 -0.02526501 -0.019544402 -0.011589762 0.017580228 -0.0027499557 -0.0031359224 -0.011001414 -0.028917763 0.024185788 0.010404824 -0.028322855 0.051691193 0.044575885 0.008943858 -0.0046169716 0.016257275 -0.025080485 -0.01924872 -0.019914875 -0.024066228 0.013915718 0.015578764 -0.036830954 0.0046712183 0.04431502 -0.018499725 0.03999993 -0.009050941 0.063184895 -0.013449938 0.025629146 0.04389502 0.012364942 0.025222896 -0.0038479578 0.07012661 0.033203106 0.069925375 0.06167036 -0.0072213467 0.040178332 0.05510399 0.040732596 -0.02233423 0.032430567 -0.01318724 -0.062599756 -0.0644984 0.007388679 0.040389378 0.03289594 0.0009172455 0.025208574 -0.013198677 0.052162748 -0.004073265 -0.0010573397 -0.039446644 0.034344062 -0.040132802 0.05553914 -0.021983312 0.01318548 0.0453376 -0.008302756 0.03739011 0.014282192 0.0070503536 -0.04337908 -0.027661461 0.009725273 -0.0042826277 0.021703694 0.05189837 0.018066563 -0.01725068 -0.046317793 0.019285262 0.019710256 0.008697788 0.05174627 -0.01761732 0.041744333 0.022401081 0.036201134 0.05261266 0.040448528 0.01668662 -0.0038448472 0.053508002 0.01658016 0.027490452 0.027357752 -0.0029749493 -0.018602444 -0.00020537147 -0.028954389 -0.041949876 -0.0077830963 -0.022953046 0.017622141 0.009095568 0.032321446 0.050136846 0.041392352 0.04920539 -0.020668434 0.020566676 0.04365201 0.028361877 0.035293344 -0.0029026351 -0.007832559 0.013113648 0.008731329 0.044773284 -0.011792293 0.010277304 -0.028651413 0.01032097 0.030774113 -0.01484235 -0.008850118 0.039354037 -0.06707269 -0.017117215 0.033000007 0.02399856 -0.007020179 0.022784548 0.009552449 0.014605808 0.06002001 -0.021270012 -0.01886381 0.009699773 0.055514913 0.047703855 0.029281486 0.03619942 -0.047959376 -0.031081835 0.026285822 0.028466256 0.03825054 0.028929707 -0.061002348 -0.016476775 0.031319834 -0.0029872546 -0.056576088 -0.009524217 -0.047175534 0.027768137 0.079706825 -0.026054973 -0.059987925 0.04359425 0.015253554 0.015782146 0.03631123 0.050009366 0.029454088 -0.0031829479 0.05134046 -0.028533602 -0.03255321 -0.012493766 0.0011211341 -0.03651883 -0.059225187 0.0024178864 0.05504296 -0.026917836 0.006770653 -0.039970223 -0.014028718 0.007885186 0.04166917 -0.009900699 -0.0073154815 0.02488918 -0.019421747 0.037257817 0.011683553 0.03510369 0.053652484 0.016880985 0.021964468 -0.06181502 0.003906949 0.073499784 0.010104205 -0.039778095 -0.052110795 0.0309779 0.07405454 0.015614616 0.017381636 0.028186228 0.031011652 -0.012665492 -0.028693164 0.040322166 0.046045795 -0.02027063 0.015290375 0.050464753 -0.03546341 0.043074433 0.00914134 -0.030861534 -0.019639572 -0.006905693 -0.0020814394 -0.023599397 0.014213605 -0.042754352 0.028597502 -0.05976107 0.016229931 0.018639177 0.021294056 0.040879782 -0.06373467 -0.0059715593 0.008194069 0.0077882274 -0.0039780145 0.053713102 0.04668545 0.028379848 0.010113911 0.0365052 -0.007937329 0.010300463 0.047559932 0.006055455 -0.0012089015 0.0430824 -0.0036565664 0.019340187 0.00732025 -0.023085825 0.036172513 0.014518999 0.04237449 -0.015258026 -0.0016193318 0.015602395 0.0046516326 -0.018930674 -0.0090681845 -0.025360875 -0.019760832 0.02205033 0.012630096 -0.03313678 0.021084389 -0.011665783 -0.034618095 0.039106995 0.019111559 -0.055280574 -0.02024883 0.017868027 0.032269843 0.0043169786 -0.020713096 -0.009298664 0.05241373 0.0032383932 0.0171139 0.02731401 -0.045584638 0.00082597113 -0.027889328 0.025969056 0.006901929 -0.04186967 0.010471107 -0.011086963 -0.03428536 0.014710476 -0.04993771 0.025955122 0.015345022 -0.021014702 -0.014900259 0.046295464 -0.029794727 0.042222496 -0.025655331 0.02210241 -0.013579299 -0.008024158 0.012487049 -0.038223125 0.0044811694
0.015379698 0.020920439 0.0029133917 -0.024770347 -0.028439041 0.016008059 -0.05974654 0.025118483 -0.017319165 0.05131209 -0.024854388 -0.030654594 0.00031950147 0.053392246 0.028174998 0.010204644 -0.019354895 0.029707903 -0.05305032 -0.041301753 -0.06287311 -0.018233946 -0.0317735 0.02744357 -0.00078654976 0.040925942 0.009791399 0.022523636 -0.053392053 -0.022081098 -0.0074080164 0.035728768 0.037674077 -0.03980031 -0.011256191 -0.0044505377 0.025666995 0.020892825 0.021296032 -0.04444891 -0.027489213 0.02537755 0.0075062877 0.035408746 0.023681987 -0.03961805 -0.022325147 -0.0005120743 0.051149942 -0.05196579 0.012423258 0.0026442125 0.057029754 0.0892801 -0.020638613 -0.05530176 0.051804233 0.06619646 0.029760173 0.06091856 0.044500373 0.045264162 -0.01298811 0.027087223 0.046026718 0.031872854 -0.018648693 -0.053169813 0.010536763 0.033688407 -0.083865255 -0.07123193 0.016036686 -0.07254203 -0.035012063 -0.04030333 -0.024365168 -0.016675329 -0.034250334 -0.0053524477 0.01001731 0.008235828 0.011408793 -0.020247703 -0.007556949 -0.016593229 -0.043725267 0.06457513 -0.029358227 0.027408756 0.02913859 -0.008226065 -0.024304777 0.03541695 -0.030433655 0.039853144 -0.024041215 -0.008237353 0.0047388882 0.04137183 0.06082229 0.029141167 0.04347029 0.038158797 -0.0021043683 0.008079493 0.033006348 0.050572608 0.014672529 0.05339297 -0.0587954 -0.05205868 0.004039824 0.005321257 0.028944895 0.0022027122 -0.008133906 0.03318569 -0.043754667 -0.031579025 -0.039061032 -0.06466819 0.010073414 0.040993094 -0.038406912 0.004760984 -0.04363399 -0.0015405049 0.034320947 0.04830185 0.020620309 -0.007205552 0.06980196 0.06516682 0.008231158 0.008505666 -0.006748605 0.03809891 0.033568356 -0.03493709 -0.017058572 -0.025286958 0.002714643 -0.014266331 -0.03299623 -0.036769975 0.0253637 -0.0016888141 -0.053992465 -0.024664124 0.020499477 -0.005066957 -0.030084439 0.047592875 -0.015504789 -5.7668103e-06 0.013739678 0.01334335 0.0069672144 -0.001674816 -0.042909056 -0.043289408 -0.009801031 0.026476683 0.031330705 -0.0024921608 -0.015197172 0.050547104 0.003907987 0.048358418 0.015866965 -0.007390072 0.049466304 -0.033073384 0.033762433 0.038406022 -0.01474658 -0.012808534 -0.0013573273 0.02291338 -0.037326723 0.062404245 0.018940732 0.006480782 -0.04305697 0.01729083 -0.026390467 0.03469859 0.0069881612 0.025896678 0.020215923 0.008071389 -0.014582831 -0.0057074046 0.031466614 0.020755667 -0.03669416 0.034254707 -0.011754113 0.017322486 0.0468072 0.050593305 0.0045407983 0.01864062 0.04442567 -0.043953687 0.0071819145 -0.055231266 0.035207577 -0.02985134 0.018921599 0.020348765 -0.047192715 -0.01300893 -0.02657061 -0.010827978 0.032029122 0.041225895 -0.013488435 -0.0013433606 0.029421652 -0.018374627 -0.025712565 -0.046310518 -0.045800164 0.011256853 -0.0014063728 0.024324099 0.025071105 0.03203014 -0.0444527 -0.013430794 0.050009254 0.009627172 -0.0028095937 -0.022230798 -0.040422548 0.03166271 0.05191668 -0.012797542 -0.0044235685 -0.016026296 0.015037076 0.022352595 -0.0060582743 -0.011378776 -0.023105528 -0.03619848 0.029270507 0.022020368 0.027514273 -0.0071142414 -0.0065809386 0.016725695 -0.030251144 0.015354588 -0.033489216 0.054686494 0.064824656 0.05655118 0.022714334 -0.0017250966 -0.07340232 -0.03625024 0.013206983 -0.010662346 -0.023728637 -0.046794057 -0.07468929 -0.033022378 0.039582543 0.04093209 -0.012233669 0.054812852 0.010293749 0.010744466 0.050024822 0.022887044 0.013558639 0.03954405 -0.009059464 0.040627837 -0.055440426 -0.051368527 -0.035156112 0.021239033 -0.0026149228 -0.07264824 0.04015219 -0.04779467 0.013853546 0.01945525 0.017630426 0.04082116 -0.0069644963 -0.014920628 -0.016199159 0.020867966 -0.02934268 -0.031009298 0.024440723 -0.0012720474 0.03593493 -0.020144654 -0.022975367 -0.019994762 -0.046076767 -0.052506074 -0.032588683 0.00019442893 -0.036848597 -0.02850013 0.0026826607 0.0037598133 0.0336446 -0.019318588 0.035792045 0.051077895 0.044378154 -0.040380873 0.025845807 0.04599849 0.01729952 0.041304667 -0.045574527 0.02515475 0.036563586 0.012806247 -0.0046371743 -0.018025015 -0.054022405 0.00035652 0.08034193 0.015361607 -0.006006234 0.06204398 -0.006991698 -0.012125135 0.031425554 0.013872235 0.027771685 -0.0019848775 -0.029721616 0.052780025 0.024462271 0.048613656 0.054252617 -0.0153634725 0.03799732 -0.030387448 0.029847166 -0.005922912 0.0332183 -0.019022245 0.023483118 0.039548162 0.010760111 -0.06661869 0.019612228 -0.0044205827 -0.011534295 -0.020796226 -0.0007822214 -0.006912644 -0.0068626367 0.01599351 -0.01905157 -0.04602141 0.040068824 0.026086643 0.03496133 -0.044086877 -0.025797358 -0.004658261 0.03314815 0.012591777 -0.027878279 -0.019002046 -0.012678602 0.052612633 -0.024033064 -0.019239785 0.023746444 0.038251884 -0.020763978 -0.053745937 -0.01572021 -0.0027951158 0.017474303 -0.033158455 -0.016523745 0.0044103297 0.023070741 0.009657176 -0.022837697 0.042544376 0.01141259 0.021534493 0.025522428 -0.01031188 0.041739207
0.027547723 -0.04599734 -0.04527982 0.049669474 0.049148746 -0.008006871 -0.028557338 -0.019912044 -0.03910472 0.019964207 -0.025210721 0.027853943 -0.01601867 -0.03195135 -0.048320398 0.027248258 0.0024274227 0.023602221 -0.040869508 0.035749737 -0.048074212 0.030555243 0.009342617 -0.023192685 0.008213884 0.03142884 0.04720414 -0.045420103 0.008855239 -0.016989332 -0.023873186 0.01732388 -0.0010531921 0.019757556 -0.025619013 -0.017893199 0.047829483 0.008021314 -0.02427616 0.0016085288 0.049018968 0.02695971 -0.009650257 -0.032881103 -0.045410912 -0.0328968 -0.032393508 -0.020382348 0.02223152 0.0017813529 0.041307673 -0.020649381 -0.011733974 -0.018934404 0.00028084798 0.009851382 -0.0038327728 0.03119773 0.032845464 0.007868569 -0.035669502 0.050067205 -0.029912341 -0.010262186 0.0026946852 0.028211376 -0.021631608 -0.04322106 -0.015197195 -0.00014557765 -0.016490364 0.049611498 -0.010749115 -0.031480458 0.004446598 0.04090374 0.040192593 -0.04450813 0.03681813 -0.029268816 -0.04642095 0.047463007 0.037415277 -0.044553056 -0.049532145 -0.04041527 0.027244484 0.008939109 0.0013860964 -0.025181489 -0.04186863 -0.031300645 -0.029220058 0.017607525 0.04351868 0.042465538 -0.018124485 0.010469171 0.002854411 0.019765586 0.0135898655 -0.03854605 0.045671254 -0.006375742 0.031052517 0.024613189 0.0053172773 -0.025441205 0.024227679 -0.0075960504 -0.02562271 0.033358436 0.045496535 0.019039905 0.004372709 -0.022025842 0.04047834 0.01236981 -0.026068306 -0.012192264 0.014568024 -0.032366827 0.03187864 -0.038565915 -0.027871097 -0.028701099 0.024246737 0.036057938 0.035474822 -0.033178538 -0.04466877 0.017324412 -0.036551755 -0.009471921 0.02972299 0.018771077 -0.035835985 -0.026040928 -0.0066088345 -0.020097045 0.019323716 0.048530668 -0.002065667 -0.008339581 0.006176721 -0.031136975 -0.029297816 0.04632021 0.018521458 0.004714055 -0.0040553426 0.0054307063 -0.03634206 0.03100187 0.01936858 -0.0038829476 -0.035325717 0.02156744 -0.030922068 0.0018592598 -0.04227749 -0.01656031 -0.040786706 0.00906531 -0.03629024 -0.021651445 -0.012131318 0.0407952 -0.047745354 0.0041632326 0.027522715 0.021678464 0.0061611054 -0.015833063 0.04468616 -0.02104213 0.042158447 0.030246459 -0.030314608 -0.043379057 0.01204519 0.026223527 -0.017480142 0.015830258 0.039946113 0.028050195 0.04023543 0.010325742 -0.030468319 -0.046491537 0.03465186 -0.0007789752 -0.04702355 -0.04921094 0.0049140295 -0.0052628177 -0.02602979 0.03630397 0.035203144 -0.042423036 -0.048214007 -0.030210674 0.015022609 0.031271845 0.021664549 0.022234272 -0.037267532 -0.03273152 0.025075192 -0.0037095083 -0.047075365 0.021883622 -0.01490284 -0.022999862 0.046334516 0.016804572 -0.043876514 0.016281806 0.012546153 0.047285788 -0.016377674 0.028989932 -0.003548958 -0.0066673616 -0.032291856 -0.04380334 -0.0015262554 -0.010976743 -0.012448521 0.035588264 0.00992785 0.029773261 0.037787355 0.014039243 0.035330962 -0.03857293 -0.009468828 -0.040059336 -0.020885533 0.02735622 0.034753934 -0.04338012 -0.020467306 -0.030595409 0.010615888 0.0057914704 -0.044450443 0.007271834 0.0073880935 -0.049182814 -0.017633114 -0.021299498 0.021437094 0.02085739 -0.032632656 -0.03009903 0.02652068 -0.017990744 -0.017418375 -0.0071520954 0.042182468 -0.039049856 -0.021863125 -0.00045414479 -0.006474114 -0.004396982 -0.024417618 -0.036202416 0.030568138 0.0024937235 0.027947107 0.0014274573 -0.034034662 0.0053862445 -0.036398116 0.023056172 0.008005586 0.021014765 -0.0005342983 -0.04024611 -0.020211026 0.018553372 0.0040729763 0.008413665 -0.020130822 0.010904305 0.046927337 -0.02788064 0.032824177 0.009944008 -0.03290026 -0.021293556 -0.021027964 -0.03145915 1.6988854e-05 -0.01782007 0.034605816 -0.03729272 -0.020834908 0.028135153 -0.044180814 -0.04810439 -0.0064480472 0.04582888 -0.008325275 0.015277181 0.029909711 -0.008050647 0.031493027 0.038371716 -0.0044405647 -0.038819067 -0.01185173 -0.04453087 0.035356287 0.014423066 0.0063265446 0.009171038 -0.037117444 0.01414368 -0.031749256 -0.0062184394 0.005711774 -0.028427403 0.02962197 -0.026534528 -0.045729924 -0.002113223 -0.018376604 -0.03231812 -0.020506646 -0.03151105 0.01843423 0.043465883 -0.042666726 0.015250816 -0.014708814 0.0041983784 -0.0020721897 0.01080508 -0.04157973 0.03600037 0.0020599717 -0.019553022 -0.015960539 -0.019507086 0.044726457 -0.028029913 0.041334905 -0.020135881 -0.03548124 -0.017942574 -0.0037183764 0.049350854 -0.03417303 -0.049566075 0.030389972 -0.014804182 0.01642771 0.019565934 -0.019337289 0.028122766 0.016613843 -0.028288204 -0.0033845815 0.021292992 -0.007359147 -0.019685248 -0.0106722 -0.032865603 0.03689274 0.0360179 -0.019173602 -0.044085305 -0.031115169 -0.026645789 0.012176678 0.01961426 -0.046250597 -0.049666397 0.024974259 -0.010247414 -0.027923916 0.03475177 0.049558956 -0.007143979 0.004331448 0.01656556 -0.025886774 0.044956654 -0.033596233 -0.040783226 -0.00048029723 0.0027980686 -0.046119466 -0.02458403 -0.022299526 -0.02937016 -0.008700036 0.046868827 -0.014679527
0.017169237 0.037323814 -0.016638719 0.0016771618 0.03306585 -0.0011979889 0.022026803 0.03180865 0.026388414 -0.03872022 -0.019663746 -0.04288086 0.0009049401 0.0316853 0.017309228 0.02211974 0.04858443 -0.04506154 -0.03767559 0.029618867 0.018077716 0.04745228 -0.01002837 0.045986023 0.02123227 -0.0041479394 -0.041828312 -0.01049221 0.023482641 -0.02917815 0.033761844 0.012365413 0.04676334 0.041963965 0.03875846 -0.046002936 0.0035868704 0.009407475 0.015081059 -0.048537165 -0.032770224 -0.04171913 0.04516131 -0.04758187 0.025852928 -0.00825326 -0.018682417 0.004600381 -0.018665647 -0.030764608 -0.0017777161 -0.01320139 0.043008775 0.0014237837 0.04403225 0.019707728 0.02006228 0.040794358 -0.040855367 0.040418077 0.026340632 -0.047976315 -0.013794239 0.043513395 0.008679785 -0.040343583 0.04256364 -0.032588337 0.010589378 -0.046092015 -0.034063786 0.014864724 0.028893728 -0.0018165144 0.018546667 0.017098425 0.032192383 -0.037868243 0.0044629327 -0.048224494 -0.010882128 0.035799596 -0.03789896 -0.039579704 0.03442366 -0.02367948 -0.036250457 0.028308326 0.047013097 -0.0022588226 -0.040730383 0.047191575 0.025050491 0.02758874 0.029297406 -0.014448831 -0.017132761 0.014120588 -0.048541494 0.010761192 -0.047594722 -0.025620593 -0.04153379 -0.022840928 -0.04694277 -0.047867298 -0.005345406 -0.0063293017 -0.03755433 0.025862038 -0.00694863 -0.044344734 -0.010761796 0.017331164 0.0039294055 -0.019122407 0.045751244 -0.015699163 -0.029903825 0.02745368 -0.017712384 0.01125893 0.031893235 -0.03004812 -0.005056428 -0.033247687 0.010953958 0.017892787 -0.045619566 -0.04520363 -0.006439972 0.04797674 -0.038906377 0.01756742 -0.0461615 0.034372628 -0.02046619 0.03293324 -0.034846965 -0.027676953 -0.005504643 0.040521413 0.019912042 0.047933348 0.037839048 -0.011409128 -0.039087392 0.010664026 0.007606452 -0.033453137 0.026741572 -0.029473227 -0.0036623988 -0.007775096 0.029900027 -0.006695196 -0.032685395 -0.020712046 0.010707593 0.022747494 -0.03155804 0.0069831223 -0.041555453 -0.034374278 -0.029903634 0.016181156 -0.014814976 0.030583227 -0.011329792 0.0029892402 0.019784946 -0.04711605 -0.015051802 -0.013989553 0.012979069 -0.04143746 0.03607914 -0.0030067342 -0.047214784 0.022334449 0.030581107 0.026453773 -0.012654112 0.04219133 0.0036293396 -0.01499588 0.011968875 -0.015905473 0.026790475 0.0035089862 0.0112976525 -0.038314544 -0.019540742 -0.021910582 0.03038222 0.010001234 0.028611926 0.015293287 0.04858107 0.01317604 -0.02769902 0.036315616 -0.017118644 -0.0045246864 0.0139612425 -0.027777502 0.005244807 -0.025984285 0.040740207 -0.010890973 0.0228303 0.031718817 0.044045515 -0.024049563 -0.034404583 -0.013351734 0.049692936 0.027287107 0.00901914 -0.00916097 -0.030344393 -0.011302631 -0.0112320455 0.0025140014 -0.023552042 -0.030239863 -0.027795877 -0.018402286 -0.038213044 0.030083505 -0.03571643 -0.017404329 -0.007106255 -0.038536232 0.009015733 0.008443592 0.030207818 -0.011243706 0.044455525 0.046287544 0.023165474 -0.0007723846 -0.029035753 0.017575 0.03183035 0.024207395 -0.019000862 -0.0416065 -0.0280408 -0.026414756 0.014286004 -0.018812912 0.0013889959 0.014252149 -0.03671536 -0.020893143 -0.046258003 -0.0013856117 0.02272219 -0.020080011 0.020908875 -0.042781256 -0.041904036 -0.008032977 0.036973316 -0.021116681 -0.039784234 -0.020564377 -0.0134096 -0.0009820854 0.018243378 0.033597693 0.036159538 0.009084963 0.023975048 0.0034987724 -0.047568135 -0.016356632 -0.02312566 -0.03959883 0.03438865 0.013278434 0.044381227 -0.035001017 0.009548529 -0.038145687 -0.02574993 0.01983297 -0.009939664 -0.018601285 0.03737659 0.050988052 0.0070254966 -0.002257506 -0.039941017 -0.025597218 0.011228866 -0.045138326 -0.040742148 -0.034757037 0.049373176 -0.042664655 -0.039799668 -0.047743153 -0.025289379 -0.049264964 0.001831117 -0.020530261 -0.023693223 0.040399104 -0.020157324 0.034515828 -0.03745394 0.038877945 0.030608878 -0.022038372 0.0060794298 0.029545777 0.004281079 0.017763836 0.033375725 0.045184832 0.0036186615 -0.035252832 0.04274777 -0.030750038 -0.036863334 -0.011243965 -0.04522522 0.027534628 -0.042399578 -0.019661916 -0.014096436 0.037491288 0.000118114105 0.044145152 -0.025568057 -0.0013966247 -0.023595547 -0.03453434 -0.010484012 -0.012589845 -0.00176203 0.035590734 0.00046564903 0.04851305 -0.048266944 0.033414602 -0.017016642 0.0443993 -0.024499673 0.0035371152 0.028325323 -0.03379396 0.01049676 -0.031095672 -0.004437702 0.032172438 0.05042244 0.012917275 0.046960294 -0.034165557 -0.0104033435 -0.038945373 -0.047851756 -0.015621984 0.015417229 0.045545913 0.005794211 0.018711003 -0.0030184207 0.040409226 -0.008478415 -0.018361835 -0.017252525 0.035458792 0.03501464 -0.050029427 0.011131236 0.025913583 0.017856065 -0.021098372 -0.0016297064 0.031655896 -0.028664144 -0.028649101 -0.009430505 -0.042488422 0.005595445 0.036266495 0.014682906 0.0078855045 -0.008284372 0.021159653 -0.03895857 0.0031937754 0.051127777 0.04384231 0.011680677 -0.029594835 -0.01724276
-0.012400046 0.019402418 -0.019933606 0.010858738 -0.019454036 -0.0054343157 0.038211327 -0.02573162 0.029945424 0.0127594825 0.023872796 -0.010533892 -0.014475927 -0.030492501 -0.017320085 0.018047594 0.031846188 -0.01865134 -0.00998294 0.015399447 -0.0113735255 0.029963573 -0.040085293 -0.034532223 0.045536883 -0.023284031 0.041117802 0.012648291 -0.025052078 -0.018373584 0.010982056 -0.04459188 -0.045000423 -0.041040547 0.012905437 -0.0106665855 0.028092608 0.010515534 0.014743445 0.00419348 -0.0015488578 0.030749228 0.034508843 -0.046644967 -0.029886162 0.03924576 -0.03822148 -0.01587561 -0.012754106 -0.0072077145 0.010049617 0.020338653 0.009603058 -0.035987504 -0.014786761 -0.0053427643 0.012404879 -0.04218405 0.03379258 -0.040542282 0.014622304 0.02635169 -0.036633156 -0.035587046 0.05760414 0.051140923 0.051405232 0.037271574 0.024666252 -0.031450618 0.018571498 0.032328464 -0.037265968 -0.0003260944 0.029095288 0.044198785 -0.027807204 -0.0065354463 0.021155253 -0.026906474 -0.025882019 0.008841256 -0.010569699 0.017518505 0.020725701 -0.008662746 -0.0060111643 0.045036744 -0.020046888 0.017958684 -0.0028618854 0.04444721 -0.01537903 -0.010909083 0.03398124 -0.030920621 -0.030241838 0.026747715 0.021837352 -0.03958986 -0.0020249048 -0.03470999 -0.0055990936 -0.0074338834 -0.03551391 0.017399965 -0.00558966 0.0022880991 0.021349149 0.03654509 -0.02254385 0.008017199 -0.023900274 0.02571562 0.027245792 -0.005491507 -0.050615925 0.038527105 0.012494155 -0.0059092687 -0.02285492 -0.030669555 0.02873751 -0.016956512 0.009976726 -0.014529355 0.03768078 0.0021527177 -0.01739893 -0.04020311 0.032173548 -0.051312122 0.013186067 0.024553567 -0.010684313 -0.028081724 0.045295775 -0.015671136 0.034879785 -0.037426412 0.027376136 0.035602983 -0.046463113 -0.039279252 -0.02492997 -0.023335516 -0.027889708 0.05085817 0.048213836 -0.0046202564 0.029324887 0.025667226 0.0303474 -0.017821675 0.009826093 -0.009079337 0.049607243 -0.01932267 0.012219859 -0.044162255 -0.009748705 0.036691993 0.0036151556 -0.04356377 0.045497816 -0.0038426828 -0.051339556 -0.039452355 0.0047302796 0.012327045 -0.049610686 -0.0032795498 0.0048260475 -0.016919395 -0.0050712763 0.0056484696 0.027171746 0.024062606 -8.252884e-05 -0.033201445 -0.031356387 -0.029429367 -0.020842355 0.028752662 0.0023421615 0.016229618 0.025527174 -0.011953069 0.05329928 -0.024040056 0.0045998907 -0.01691788 0.03640171 0.013108306 -0.010910877 -0.01096677 0.019004595 -0.04126506 0.030347228 0.038942963 0.03711672 0.010970944 -0.008028857 0.03300241 0.023225449 -0.04109594 0.0048756083 0.0080240825 0.011857544 -0.023838576 0.010060513 -0.04537051 0.044397198 -0.008571704 0.027411008 0.023876699 0.0055154273 -0.019160239 0.051858302 -0.0007145432 -0.008820456 0.017518062 -0.004846194 0.047952063 -0.0009577931 -0.03191493 0.021190146 -0.00030444792 0.037518628 0.032332856 0.039374873 -0.02162161 0.030508954 -0.0059488732 0.017747767 0.012852007 -0.0021024635 0.036844485 -0.016896067 -0.023752522 0.030457318 -0.057143543 0.032540806 -0.015939297 0.011401721 -0.035635203 -0.018337768 -0.0023847765 -0.0037976971 -0.038818873 0.0055545005 0.02118216 0.04518912 0.019769026 0.012768575 -0.014837969 0.05792592 -0.04870469 -0.030300748 0.0013655344 0.026563108 0.021405406 -0.016735401 -0.04436249 0.030426366 -0.039892785 -0.049375 0.038404323 -0.03274452 0.023990834 0.009575965 0.03741624 -0.027152259 0.0051050982 -0.024408113 0.05921293 -0.0006456493 -0.020891879 -0.037263386 -0.059490107 0.027885256 0.015928911 0.013272658 0.04630394 0.02817357 -0.00987193 -0.010216301 -0.024331763 -0.046646826 -0.045069307 0.035754114 0.0035020604 -0.046846084 -0.03955163 -0.0035889708 -0.0039600986 0.017573604 -0.008517584 -0.04751663 -0.052752927 -0.036087286 -0.02543098 0.023859987 0.011157543 -0.01318507 0.002442741 0.043909233 0.0022166865 0.0009960459 -0.017674474 -0.009981718 -0.0139513025 0.008134608 0.022785269 -0.047425367 -0.011358954 0.04225475 -0.037164398 -0.04074144 -0.049141027 0.03453375 0.01350259 -0.005474623 -0.010780934 -0.0016213681 0.047220875 -0.014047409 -0.0018177244 0.01463067 -0.037662074 0.016746255 0.015553199 0.03879329 0.05236842 0.017691296 0.009499749 -0.051765926 -0.031248033 -0.048314754 -0.019331794 -0.041791663 -9.9782366e-05 -0.04056565 0.0156013975 -0.023134619 -0.047996257 -0.0048224875 0.0044160765 -0.041688614 0.045654897 -0.006811314 0.049144607 0.021363666 -0.038354132 0.038960427 -0.023014063 -0.009251497 -0.055371594 0.033359963 0.012416342 0.017144904 -0.011104516 0.016248716 0.045983944 0.023606747 0.017158767 0.036816046 -0.042458627 -0.033856295 0.038088776 0.0018818483 -0.025177943 -0.009623841 -0.005836744 -0.003824443 -0.043894734 0.015802994 0.021147843 0.0063582347 -0.0105918655 0.043456424 -0.023147095 -0.04794457 0.0110968035 0.030862233 0.03466991 0.037559394 -0.042277705 0.05169337 0.026349535 0.0028544294 0.005826004 0.022624055 -0.021633055 -0.021439347 -0.010059456 -0.022261696 0.027841525 -0.0016821426 0.008243405 -0.00663534
-0.018937692 0.033193324 0.052301433 -0.02250114 0.0058202636 -0.025074864 0.032122567 -0.031363465 -0.067149125 -0.006287676 0.009051166 0.0076125944 -0.024555609 -0.04515982 0.028693445 0.023887947 0.015205778 0.007630615 0.009422568 -0.03772647 0.0075047417 0.038297217 -0.0418696 -0.0066225687 0.03377143 -0.012416784 -0.059909735 -0.025869256 0.050792515 0.036330264 -0.0067666257 -0.02669222 -0.01096339 -0.022362975 0.02523753 0.0017301359 0.00551105 -0.020506883 -0.033437364 0.02436648 0.036315758 -0.05110184 0.011021837 -0.00078713056 0.027711563 0.013819513 0.0070304726 -0.015934048 0.025227427 0.024311705 0.030311586 0.038108382 -0.00020834534 -0.005701962 0.025620386 0.0057209046 -0.0073141037 -0.065404326 -0.022545839 0.0013774397 0.016196392 0.016591758 -0.0036808685 0.05943088 0.011567548 0.043779608 -0.0036238001 0.045743756 0.033024404 0.055274025 -0.02053206 0.044596177 -0.017207852 0.027598383 -0.0083883 0.00556572 0.026965614 -0.0038116362 -0.04347271 -0.04795716 0.037072714 -0.034312304 -0.033027414 -0.0068443553 0.019468252 0.0059744297 0.034635466 -0.039318334 -0.004921224 0.025654873 0.038446814 -0.028047156 -0.029556718 0.026022052 -0.0014224946 0.0005088756 0.03436417 0.031214409 0.00081586244 -0.04664972 -0.027269097 -0.055145677 0.028983178 -0.028225528 -0.056939885 0.041391198 0.021123948 0.0373999 -0.03638075 0.012106451 -0.009377641 0.049214747 0.04261042 0.02218061 0.05010937 0.008624076 0.008371111 0.034291808 0.029460048 -0.033424646 -0.009684124 0.0074235313 0.02713676 0.0008663854 -0.022660442 0.058094546 0.0074383207 0.017633352 0.041522536 -0.040966116 0.04174586 0.010070002 0.046601817 -0.045259863 0.0075188177 -0.02569117 0.03540542 0.029400097 0.044714417 0.053530864 0.031251945 0.04525855 0.044370964 0.005915807 -0.0056371894 0.027373772 -0.025662897 -0.025331102 -0.033407506 0.05055509 0.01672474 0.016485203 -0.042571418 0.014211044 0.008739647 -0.021402122 -0.00854032 0.0317295 0.018620804 -0.005767548 -0.03100581 0.0036937557 -0.013178502 -0.022792166 0.0126283085 -0.02910447 0.030805556 -0.025004935 -0.008063297 -0.011362432 0.024034655 -0.004048464 -0.01790102 -0.019013038 -0.0051191202 0.0072246306 -0.0127447 -0.04940091 0.03139802 0.007975395 0.04445289 -0.0408301 0.030755114 -0.039050113 -0.04544112 0.008500264 0.03010716 0.028055035 -0.022645531 -0.014438522 -0.0051023434 -0.018794892 0.03198627 -0.02570848 0.05200313 0.021038845 0.016901543 -0.0030147685 0.05662434 0.033775438 -0.027631322 0.023966879 -0.0018779623 0.042057145 -0.044466693 0.019414242 -0.040464524 0.023633547 0.045997262 -0.007231088 -0.048125464 0.02694227 0.0066246344 -0.031484097 0.0065192897 -0.021647042 0.012685771 -0.035374694 -0.031160735 0.018628241 0.03048706 0.042449415 0.0031084744 0.019464657 -0.041309796 -0.07136429 -0.06645398 0.0036693683 -0.07553281 -0.014548819 -0.03196246 0.012774342 0.020761907 -0.016685545 -0.021169133 0.064988665 0.013698856 -0.031956322 0.032605976 0.05624684 -0.039201327 0.017683472 -0.025688384 0.012114789 -0.005796025 0.04091803 0.030790256 -0.008550284 0.030373435 0.0035768952 -0.026298333 0.012130865 -0.031272423 0.039963704 0.014689139 -0.0147536155 0.019348431 0.029430987 0.012136752 -0.06311548 -0.009072293 0.004745838 -0.017627211 0.026710678 0.045592595 0.0050638914 0.0049762386 0.030618964 0.02671203 0.04528158 0.04010019 0.036116842 -0.0026920396 0.030590676 -0.047166664 -0.00036597234 -0.013299153 0.034011155 -0.0004182804 -0.012749462 -0.014754922 -0.055660747 0.044182047 0.025778007 0.007162585 0.018820634 -0.024958858 0.065467365 0.0109005105 -0.019617986 0.010810928 -0.011679019 -0.04114506 -0.005839243 0.053098258 -0.022069445 0.05175961 -0.049200017 0.012117883 -0.0021143598 -0.05272981 -0.02467273 0.038112823 -0.01784227 -0.014582769 -0.017096583 0.041717097 0.0001401056 0.036993366 -0.0037458465 -0.008593539 -0.047194466 0.014148091 0.0069726435 0.034814272 0.005178995 0.021322923 -0.050414357 -0.018635053 -0.0242283 -0.01505358 0.024336498 -0.003643987 0.034469094 0.033170752 0.019424364 0.009551983 0.0041989507 -0.055447508 0.00020832475 -0.02790127 0.06400984 -0.03449273 -0.026311902 -0.053743124 -0.044409513 -0.026371544 0.02428124 0.020175936 0.0111868465 -0.04437952 -0.045954112 -0.05968194 0.015560891 0.03746142 0.035601318 -0.034429874 -0.0133688 0.030634863 -0.02234193 -0.023788255 -0.01996913 -0.019434065 -0.0521224 -0.012197728 -0.06918915 -0.0046537956 0.034634456 -0.029703964 0.04177543 -0.05192886 -0.05754409 0.023628173 0.019315861 -0.029071972 0.026692197 0.043031648 0.013051403 -0.033271603 -0.0074397926 -0.031793613 0.054774716 0.037634306 0.008518853 -0.0018024945 0.017546209 0.041681513 -0.0026184483 -0.04495559 -0.04856292 -0.014130348 0.017897261 0.031515416 0.013348753 -0.022171594 -0.009797591 -0.0031402274 0.04257162 -0.023731574 0.029643642 0.0022602687 -0.018669354 0.010963783 -0.040865738 -0.029345738 0.020075373 0.03567803 -0.0065921945 -0.041843437 0.036422223 0.031864516
-0.017163375 0.029671744 -0.047968596 0.018057052 0.02387449 0.02977031 -0.006518959 0.040667493 0.040943053 -0.008502606 -0.020457335 0.036459617 0.03162559 -0.033610255 -0.03890181 0.02435062 0.02752414 -0.04413477 -0.002954787 0.027200421 -0.039205197 -0.025875151 0.032763083 0.049385864 0.009177249 -0.04078242 -0.03936775 0.05383431 -0.01426414 -0.035682667 -0.015401068 -0.011891017 -0.011605776 0.0075409412 -0.009335547 -0.0054881303 0.045436032 0.043052852 -0.045810703 0.025637668 -0.04833735 0.020223422 0.009863779 -0.028495142 -0.00959609 -0.017025635 0.007183458 -0.04023562 0.05107809 -0.032761015 0.0115724495 0.028940653 0.027322691 -0.045986686 0.0384459 0.041041844 -0.028992843 -0.036742687 -0.04476584 0.02880121 0.006026268 0.020891108 -0.047829546 -0.007856906 -0.02645596 0.0026630796 -0.0032626481 0.026469173 -0.05149239 -0.00588974 -0.032539193 0.05410389 0.014521477 0.058941055 0.013145759 0.03640515 0.020638857 -0.038136985 0.046456415 -0.0009558682 -0.0012327955 -0.020412596 -0.039553583 0.014726788 -0.026440833 3.389304e-05 -0.046322253 0.0005274039 0.026263256 -0.046459492 -0.0048918715 -0.016355542 0.041517574 0.042781897 0.025249386 -0.0044913553 -0.02729169 -0.034958657 0.024554357 0.024131056 0.005460816 0.027690167 -0.042147394 -0.04168731 -0.004225442 -0.013342623 0.024356574 0.0063428977 -0.030773582 -0.01810179 0.042546038 -0.023957295 0.036004543 -0.016517641 -0.038944185 -0.026343703 -0.016822083 -0.0117868725 0.012290404 0.008801394 -0.044281624 -0.008479924 0.043701313 0.011742716 -0.006037645 -0.03612743 -0.0053308173 -0.0045403517 0.052781112 0.015402864 0.04425157 -0.004430376 -0.032638133 0.0031415427 -0.026178215 -0.010554627 -0.015487116 -0.01930777 -0.0033626494 -0.04897049 0.038028162 0.004371977 -0.038995862 -0.044531263 0.03450319 -0.040953625 0.05480874 0.027004572 0.050900877 0.0029555687 0.013371506 -0.04069209 -0.02351446 -0.00024927265 -0.048051074 -0.029758161 -0.0016872953 -0.029790387 -0.030770434 0.033538394 0.01619783 -0.046146028 0.033243045 -0.037091445 -0.0029456555 0.045660518 -0.031134838 -0.036996506 0.01943435 0.012035715 -0.025401155 -0.015923323 0.044565618 0.026232906 0.03260573 -0.031637643 -0.031716708 0.037725843 0.0025307632 -0.039064325 0.04165137 0.034250427 0.03867484 -0.020522814 0.03807337 -0.007513035 0.0068196966 -0.005204167 -0.044173695 0.01878378 -0.024314936 0.025541827 -0.050492942 -0.053401545 0.0064865854 -0.032524627 -0.008293693 0.055286113 -0.03823673 -0.013399358 0.01363093 -0.0012903827 0.01767596 0.037401725 -0.022516193 0.034091137 0.0052494267 -0.050773475 0.0071623255 0.005270013 -0.033110693 0.021924425 0.02012673 -0.019318799 -0.038992107 -0.030258302 0.002664113 0.04724308 -0.018592717 -0.0282395 0.018963544 0.022846276 0.03834348 -0.006979879 0.030966187 -0.023592105 -0.0052205706 -0.04505286 0.024962021 -0.043323312 -0.04568881 -0.03603733 0.044541832 0.046936132 0.036757663 -0.015749674 0.03906064 -0.026280021 -0.008999534 -0.035244428 -0.005039127 0.01967214 0.04622065 0.039976366 0.01829131 0.008841272 -0.010429829 -0.01661899 -0.03012377 0.014699071 -0.04369958 0.031273816 0.02669388 0.020327603 0.012480931 -0.019174635 0.026548455 0.0037985796 -0.032859053 0.02405472 -0.013541442 -0.012153451 0.00065952115 0.0051905005 0.033651087 0.0246155 -0.0032513095 0.031792898 -0.04018298 0.003945058 0.001656208 0.031010121 0.017573847 -0.00027116583 0.032446336 0.018633772 0.0060645277 -0.024058692 -0.0026131547 0.009985844 0.04855197 -0.028449893 -0.02664353 -0.0073267953 -0.008499515 0.01589207 0.03590363 -0.04236214 0.024062732 6.3915366e-05 -0.035943154 0.027772626 -0.047645207 0.031974945 -0.038204357 0.008335178 0.007281318 -0.023969086 -0.038137984 0.032192834 -0.0025972375 -0.014483451 0.051454585 -0.006474129 -0.01647841 0.045305498 -0.024790952 0.02455918 -0.007464251 -0.022234706 0.04755891 -0.025278192 0.030391539 0.029818106 -0.0023830964 -0.0044586356 -0.012898877 0.01082662 -0.031528056 0.046478283 -0.038454898 -0.019922651 -0.048241355 0.051555015 0.03683593 -0.029634591 -0.019531863 0.002923228 -0.038629703 -0.046717964 -0.013602948 -0.03480554 0.00081673294 -0.035706054 -0.00445362 0.018649315 -0.0072905407 0.00390217 0.033871517 0.007296703 -0.021018649 -0.026100963 -0.033286452 0.004561607 0.024290584 0.044899076 0.03761225 0.04434662 0.045808062 0.025252562 0.010026454 0.030818775 -0.01604906 -0.006360463 0.035827395 -0.03556614 0.047912374 0.007969603 0.0322777 -0.01653655 -0.03715305 0.039345857 0.0056645377 0.002113217 -0.015218321 0.010795523 0.0026960461 0.0021643948 0.018273486 0.04979793 -0.032132924 -0.024102328 0.00556645 0.033988547 0.01883629 0.02884704 0.009086365 -0.042346254 -0.040632498 0.030464154 -0.02341309 -0.022821603 -0.03391824 0.008980726 -0.031090433 0.00038780196 0.0029496527 0.004452985 0.012732997 -0.04431283 -0.028121002 0.0084305955 0.000117254174 4.210286e-06 0.016683461 -0.0065405755 -0.0354112 0.043222126 -0.027400348 -0.016833372 -0.047208205
0.04853529 0.026617723 0.016894108 0.00821683 -0.0011719357 -0.0011260159 -0.023744065 -0.011159467 0.0037083984 0.03838434 -0.023301588 0.012692989 -0.048451558 -0.044097 0.010833039 0.047484342 -0.01572071 0.017267145 0.019480748 -0.035948142 0.038497675 -0.042610515 -0.052539945 -0.021619571 0.0021297277 -0.019339746 0.00778253 -0.007980184 0.034636285 -0.041637078 0.02959114 -0.028238209 0.04020107 -0.04400433 -0.039962452 -0.04034988 0.04457804 -0.040318403 -0.008680869 0.038089596 0.04317771 0.006186403 0.00110212 0.040989336 -0.0098127695 -0.012852009 0.012978801 -0.015476666 0.020002892 -0.02479611 0.043082062 -0.04742776 -0.039319795 -0.034070812 -0.04050302 0.041003726 -0.038754832 -0.05016817 -0.041591126 -0.012030162 0.02087047 0.03962445 -0.001173866 -0.031464 0.046347804 0.021032248 -0.013146403 0.033177536 0.014354677 -0.018528268 -0.03856851 -0.002101098 -0.048985507 -0.019741712 0.029545387 -0.010263477 -0.029371833 0.0045926077 -0.014956221 -0.034281366 -0.026715599 0.033139545 -0.027507767 0.006187083 0.0011602481 0.013580078 0.031477086 -0.0042187157 0.009393894 0.045484323 -0.012579315 -0.0423346 0.025227813 -0.015725592 0.037398018 0.018085262 -0.026030075 -0.022627486 0.027603682 0.033527862 0.026650446 0.0119259935 0.0202252 -0.016673815 0.02467274 -0.032552432 -0.02273048 -0.027856724 0.02467176 0.035570513 0.012572074 0.032290492 0.0036246004 0.044833425 0.0059267376 0.013313817 0.013200517 0.015399207 -0.048087403 -0.044030808 0.036194034 0.010271892 0.009109376 -0.02242907 0.013355333 -0.010520454 0.029031195 -0.001511967 -0.01028911 -0.024149735 -0.0034869215 -0.048000317 0.04299423 -0.02255303 -0.043398846 -0.034027483 -0.0019116541 -0.039595544 0.039036345 0.029927526 0.0029070468 0.011648222 0.013221736 -0.007343265 -0.041048147 -0.026220584 0.0003683044 0.029378753 0.029978916 -0.029521015 0.0189477 -0.037139155 0.014362669 -0.041111913 0.02684029 0.044034205 0.0050718877 0.012901514 -0.003319228 -0.044419527 0.02422724 0.038146324 -0.022387415 0.039327733 0.0055729486 -0.021298409 0.043639205 -0.040224172 -0.030354967 0.010082412 0.038485806 0.017419608 -0.036026254 0.04544909 0.011215061 0.0393223 0.037468515 0.0363379 -0.020725066 -0.043482266 0.049255695 -0.048749674 -0.021421522 0.024609216 -0.008027375 -0.004751608 -0.0037292745 -0.03319591 -0.012517376 0.013534728 0.033440225 -0.043485 0.019932622 0.0134584755 -0.028017228 -0.03744285 0.0021723912 0.011986003 0.036457974 -0.030821286 -0.045296427 0.009661383 -0.013839084 -0.017535368 -0.04089434 0.0029926125 0.01231204 -0.002637827 -0.033086393 0.039832905 0.02119752 0.019001883 -0.011479984 -0.04174627 0.042989146 0.043804683 -0.029263515 0.017795809 0.015657423 0.015910659 0.037047576 -0.014489789 0.0328163 -0.022394713 -0.050267886 0.011616833 0.03496802 0.005229853 0.0018039622 -0.0101575935 -0.030150924 0.042531848 0.030764638 0.0017483004 -0.04662076 -0.00029733134 0.0053371415 -0.04387261 -0.007285304 0.026610238 -0.01600712 0.011919719 -0.04479706 0.042243782 -0.015364277 -0.010158133 0.02435897 0.01577563 -0.05003018 -0.02920551 0.034643862 -0.041609354 -0.041539837 -0.0079847975 -0.021562269 -0.008346759 0.009863868 -0.028798819 -0.05356735 0.026240684 0.0012929823 0.018331012 0.022041466 -0.002659049 -0.024110112 -0.03661454 0.011648683 0.038345255 -0.0067819273 -0.04458794 -0.041762363 -0.025854515 -0.041579004 -0.050683506 0.034582127 0.0368003 0.02461318 0.008513467 0.0014885383 0.009453166 0.02124033 0.023317017 0.033437427 0.032242704 -0.018638823 0.019035049 -0.05584645 -0.0011847533 -0.04100716 -0.047499936 -0.04541761 0.01760999 0.013785511 -0.01686251 0.0058015254 0.02119939 0.03251117 0.030683316 0.011627462 -0.04430434 -0.045353714 0.03609614 -0.04015487 0.0067623924 0.0075796205 0.02740979 0.0006765424 -0.013733915 -0.03197104 -0.016210072 -0.036132384 -0.020604778 -0.0395572 -0.018829383 -0.03841426 0.0029360165 -0.036933303 0.027744994 -0.011549178 0.007605336 0.018221226 0.006373756 0.014269851 -0.04534928 -0.049040727 -0.032153696 0.020118011 -0.010134462 -0.0024348323 -0.047652468 0.008791833 -0.03379603 0.042457666 0.035075765 -0.0022025462 0.024533013 0.040403094 0.036305677 0.0021204907 0.0013594055 0.041216385 -0.03893915 -0.008754428 0.035263784 0.021571983 -0.013053111 -0.020011174 0.018974274 0.0479849 0.036851842 -0.032148547 -0.027109584 -0.002485686 0.028543169 -0.012095623 0.013856694 -0.048463278 -0.052675027 0.0031995955 -0.019810276 -0.012637722 0.032877482 -0.042159677 -0.033252314 -0.028051257 0.0023650513 -0.010417449 -0.050199945 0.009466268 -0.029213438 0.020543728 0.0076391585 0.017088227 0.03092282 0.0039142473 -0.0028749858 -0.044405498 -0.0028632833 -0.031078741 -0.005837901 -0.003616429 0.015642634 0.020104136 -0.013271874 0.04516253 0.018888872 -0.03309162 -0.04304931 0.046129294 -0.011364144 -0.018067995 0.022579253 -0.032038637 -0.020558098 0.027695393 0.033335824 0.042849567 -0.011637065 -0.04308937 -0.00096652313 -0.00945299
0.046442565 0.04212821 -0.018317511 -0.0023659547 -0.005126276 0.0046825088 0.038362548 -0.049114004 -0.05325147 -0.037739344 0.0369047 -0.0016276645 0.06642734 0.032759547 -0.02800128 -0.05200916 -0.040373944 -0.025991611 -0.012807937 -0.01023968 -0.029441617 -0.02864343 0.012601398 0.013623715 -0.03553072 -0.011173123 -0.002386828 0.05284424 -0.027055295 -0.027407141 0.013771351 -0.061654594 -4.063414e-06 -0.0062665157 0.0014049547 0.049518645 -0.0041669677 0.00032885073 0.019385474 0.0067793117 0.0046074083 0.0093194125 0.06255075 -0.04723789 -0.030495768 -0.040832054 0.053308375 0.02905807 -0.0006472037 0.034644555 0.036600653 0.0013587833 -0.04858016 -0.04378408 0.015023039 -0.020533064 -0.045727156 0.02518594 0.011392206 -0.041036252 -0.024571389 0.048296265 0.049776386 0.025213692 0.012893298 -0.035061147 -0.004098439 -0.045128662 -0.0019209721 -0.048854113 -0.016603848 -0.044779725 -0.0075265206 0.060229458 0.047861435 -0.010518948 0.041759424 0.016121402 0.02143449 -0.028422298 0.024149654 -0.03139616 -0.00058659026 0.026151009 0.003896986 -0.0456762 0.047214586 0.048678733 0.0258646 -0.044262543 0.02209923 0.028319582 0.047146957 -0.049476642 -0.039167974 0.026784102 -0.008091616 -0.03473916 0.0019620096 -0.039369423 0.03157675 -0.045794457 0.03137139 0.0222637 -0.0081981765 -0.010706117 -0.0027398195 0.047319267 0.047140684 -0.0639509 0.011415069 0.025753163 -0.004489707 -0.05308314 -0.015916971 -0.008969486 -0.045839824 0.027972825 0.050865535 0.049515195 0.012757843 -0.006539822 0.046297267 -0.045116335 0.0011165245 -0.011270062 -0.02181214 -0.05248714 -0.035376024 0.0050940798 -0.040992424 -0.0006029607 -0.05552776 -0.052555952 -0.013525109 -0.033505492 -0.020355405 -0.014861301 0.015347754 -0.0095384605 -0.009138283 -0.018583676 -0.040085062 -0.011767856 -0.04624606 0.0062880097 -0.051252194 -0.00034164215 0.018564662 0.0136546595 0.019930676 0.012795698 0.040878754 -0.011601505 0.038147602 -0.049839195 0.030486884 -0.019599522 -0.008552492 -0.045890078 0.01747618 0.043824367 0.039587103 0.0039138533 -0.01103493 0.038807664 -0.030716492 -0.04514897 0.01971319 -0.04240765 0.035825387 0.04772574 -0.009416251 0.016171418 0.010104215 -0.04244896 0.010203868 -0.044731498 -0.013624873 0.019847805 0.024710461 0.002054282 0.018859396 0.01859503 -0.015841605 0.0459318 -0.01901145 0.06174706 -0.0490455 -0.022417681 -0.016316704 -0.03693358 0.021761624 -0.032023966 -0.05159771 0.0070548244 0.032289278 0.014493863 -0.006280901 -0.024612464 0.011836644 -0.027964165 -0.04937933 0.017838525 -0.04581311 0.005308953 -0.01845699 0.014450012 -0.009332405 0.0046217837 -0.04180936 0.0023480079 -0.006242175 5.262747e-05 0.031007454 0.038644508 0.055312168 0.03970856 0.002336323 -0.0043106196 -0.03187326 0.039467875 0.034239072 -0.035911955 0.04305185 -0.041570812 -0.037720595 -0.022270052 0.04514849 -0.02473279 0.035092484 -0.0381444 0.04837987 -0.041221052 -0.043670364 -0.04466803 0.001498427 -0.05740899 0.03056623 -0.0002113572 -0.012377013 0.03176501 0.04159761 0.026367404 -0.021250814 0.025012156 -0.05854234 0.016722824 0.010263328 -0.03986974 -0.040887397 0.017887756 -0.016132247 0.033910062 -0.043840937 0.023211434 0.013057664 0.01412585 -0.03983539 0.021828158 -0.016090114 -0.065443404 -0.030669868 0.048408896 -0.013150698 0.00044116727 -0.02785055 0.017512683 0.0018982249 -0.053191945 0.010414999 0.01841329 0.022936165 -0.02262382 -0.0272603 0.015463165 0.00786169 -0.035564825 0.025622217 -0.02061907 -0.0083321445 0.04254303 0.040461466 0.0054929075 0.023641702 -0.015507888 -0.0016846436 0.012592676 -0.020720724 -0.038209807 0.019621115 0.01286338 -0.033509895 -0.045727946 -0.05388074 -0.016480898 -0.034550387 0.0033255871 -0.018900866 -0.027463203 0.04869397 -0.0005274797 0.03039974 -0.042268224 -0.02654245 0.051239084 0.060762953 0.010121691 0.0004088754 -0.031560335 -0.051208243 -0.04615881 -0.048423443 -0.03166621 -0.0040476676 0.03476025 -0.0041008345 -0.0044274027 0.00922854 0.016099254 0.045426197 0.050037775 0.014343816 0.04055211 0.008307095 0.0441669 -0.025804767 0.015227666 -0.023174906 0.012397052 0.04340028 0.023194589 -0.036382973 0.028009411 -0.014111412 0.03273552 0.038365275 -0.04165835 -0.012753965 -0.010975235 -0.047499757 0.06539273 -0.0105180945 -0.012205547 0.020653628 -0.045556463 -0.044701792 -0.018803317 0.015600603 0.044238884 -0.020330654 -0.024680173 0.06706685 0.028600024 0.006528354 0.045032516 -0.03048968 0.016140865 0.07461225 -0.008251929 0.042617586 0.036878165 0.033705372 0.05583859 -0.04949673 -0.0031018697 0.056918256 0.061895847 -0.008442583 -0.016632993 0.03675393 -0.018034164 -0.052612294 -0.026357038 -0.029177526 0.043519456 0.042694055 0.032618135 -0.011500113 -0.0048664664 0.008252842 -0.037848953 -0.039878413 0.030124655 -0.022513 -0.00777468 -0.042606845 0.034868393 0.0012293402 0.043309543 0.0019605048 -5.5803626e-05 -0.017843373 0.041251462 0.008442834 0.016037371 0.0012156538 0.023105215 -0.034060497 -0.0019503053 -0.0041897227
0.008017313 0.012041011 0.037888113 0.044454064 0.026310498 -0.030386496 0.048261918 0.019466063 0.04500045 0.027201183 0.0025582814 0.008243656 0.037460417 0.02358273 0.008692954 -0.011513336 0.025049577 -0.009099068 0.022694565 -0.0053285374 0.004935443 0.04430126 -0.026407797 0.02853369 0.042507406 -0.027965825 -0.04992403 0.022971446 -0.0240265 -0.023026774 0.00062213594 -0.0319388 0.010688598 -0.04793328 -0.04481735 0.040815756 0.013370869 -0.011865304 -0.007893855 -0.019150984 0.037080344 0.041449107 0.0048332987 -0.01912881 -0.0026676608 -0.05175387 0.02135258 -0.001210064 -0.0076804967 0.03574846 -0.015258974 -0.016540933 -0.06036922 -0.061703756 -0.027211633 -0.03646096 0.016213698 -0.01352954 -0.037792314 -0.02581582 0.016583858 -0.027439443 0.017225416 0.04513793 -0.009428556 -0.035280757 -0.033281088 0.031154292 0.04551387 -0.00049118575 -0.026092183 -0.021995632 -0.01738897 -0.031092139 -0.027157877 0.0047229016 0.015423424 0.008602588 0.003228484 -0.0388299 0.013929533 0.038761027 0.028398197 -0.012505313 0.00501766 -0.004583344 0.017499426 0.0169697 0.040820915 -0.0031992034 0.014046716 0.042117566 0.025355024 0.013724057 0.034858488 0.004013708 0.038497847 -0.010843579 0.043362997 0.020305485 0.026741251 -0.01046948 -0.02563958 0.044330478 0.0291319 -0.04093035 -0.045962095 0.028028566 -0.0030923933 0.05587857 0.037870765 -0.012909251 0.009999317 0.0063769994 -0.028863724 0.025616214 -0.034275677 -0.038990807 -0.040327433 -0.028033432 0.02085493 0.05432734 0.024700914 -0.022972668 -0.01734917 -0.0032353802 0.006711281 -0.048193287 -0.04192012 -0.0048966194 -0.021620605 0.006877043 0.03286611 -0.012088087 0.0066871224 0.029073147 0.05560544 -0.006525478 -0.03832672 0.025042845 -0.036774755 -0.0025164369 0.039107457 0.016105823 -0.0053069564 -0.04094898 0.026684076 -0.02098783 0.0080603305 0.010445162 0.024745785 0.008940774 -0.014342709 0.019945085 -0.024012903 0.00629621 0.044688914 -0.027611325 0.0133737335 0.03381179 -0.008301775 -0.030693527 -0.03418576 0.0010463829 -0.020806232 0.0055679204 0.003267739 -0.022795457 0.0148912165 -0.025107054 0.022141866 0.024772359 -0.025690138 0.033352014 0.032411113 -0.034137446 0.0065996405 0.033799257 0.038301792 0.046121284 0.049409937 0.03359026 0.0553657 0.0017942372 0.014397962 0.03090695 0.026746657 -0.00955516 0.054831598 0.004020767 -0.048350345 0.017673625 0.04963039 0.03581663 -0.031061834 -0.04526623 0.037886877 0.023186637 0.0077902493 -0.019491013 -0.034097448 0.011812372 0.04706748 -0.03195223 0.024170868 0.02078906 0.053683568 0.045071583 -0.03953547 -0.015498235 -0.04135507 0.016774029 0.025769025 0.003266358 -0.038923524 -0.046538804 0.021308936 0.020500898 0.034302663 -0.0069991904 0.0078512505 0.02204727 -0.012390996 -0.03673455 -0.01243871 0.011041341 0.012193551 0.014303101 0.021750871 -0.0299673 0.01827981 -0.020437209 -0.026475355 0.018074438 0.039922867 -0.01734431 -0.025647014 -0.01083672 -0.037483603 0.024489593 -0.023990676 0.035859324 0.0016610894 -0.039211057 -0.00519729 -0.009955012 -0.0068403226 0.068822585 0.021446528 -0.0049366825 0.027801434 -0.03740036 0.03319293 0.05018467 -0.043585185 -0.036858544 -0.039937872 -0.011647205 0.03582814 0.025922563 0.029192287 -0.031436127 -0.030674327 0.009553145 -0.03075766 -0.031113924 -0.042261187 0.01929619 0.004970931 -0.029188614 -0.008946409 0.01215516 0.039339006 -0.019305909 0.032256134 -0.04081343 0.05476584 0.040150188 0.0055428357 -0.046906408 -0.012922597 0.014532424 0.006835787 -0.009140469 0.04316298 0.025126057 -0.014872648 -0.020032968 -0.027699554 -0.02098908 -0.021048794 -0.027925558 0.04221766 -0.026520006 -0.03187757 -0.026972668 -0.041600876 -0.029550262 0.011299539 -0.018619895 -0.014835985 -0.020305548 0.03345094 0.0009977455 -0.03297043 -0.0452623 0.025669953 0.050337613 0.03760934 0.040348087 -0.0020526603 -0.004563225 0.011940499 0.035365894 -0.042535096 0.031164333 -0.020853175 -0.013198444 0.028170023 -0.032507583 0.0011942671 0.015649524 -0.050758798 0.03258119 -0.05059372 -0.013462613 -0.009564944 0.023816513 -0.013570002 0.001122238 0.03924551 0.018607305 -0.032462128 -0.03999965 -0.004330961 -0.042401273 0.016011003 -0.0021487295 0.045469217 -0.007944354 -0.004856596 -0.021430457 0.023771081 0.011757239 0.017489774 -0.017355774 -0.0058525316 -0.034744274 0.010052046 0.049972776 0.04709999 0.04987339 -0.0008747069 0.04533641 0.0056113023 -0.032562573 -0.009205301 -0.014405441 -0.032583103 0.029512709 0.049181968 -0.04620523 -0.0077927564 -0.014996248 0.042444173 -0.026035937 0.005292272 0.014688209 0.014253635 -0.038099244 -0.02630783 0.008343331 -0.034030788 0.02228592 -0.030136008 0.013256616 -0.032239076 -0.017496545 0.0058000023 -0.013405519 -0.00566012 0.033613265 -0.034602035 0.03517589 -0.02741075 0.037260905 0.01058834 -0.024851227 -0.04393694 0.035515483 -0.051061757 0.044879917 0.04822641 -0.017411498 -0.0027528612 0.023835422 0.030400027 0.02235955 -0.026239045 0.026433164 0.049442705
